/*
 * Copyright (c) 2025 EdgeImpulse Inc.
 *
 * Generated by Edge Impulse and licensed under the applicable Edge Impulse
 * Terms of Service. Community and Professional Terms of Service
 * (https://edgeimpulse.com/legal/terms-of-service) or Enterprise Terms of
 * Service (https://edgeimpulse.com/legal/enterprise-terms-of-service),
 * according to your product plan subscription (the “License”).
 *
 * This software, documentation and other associated files (collectively referred
 * to as the “Software”) is a single SDK variation generated by the Edge Impulse
 * platform and requires an active paid Edge Impulse subscription to use this
 * Software for any purpose.
 *
 * You may NOT use this Software unless you have an active Edge Impulse subscription
 * that meets the eligibility requirements for the applicable License, subject to
 * your full and continued compliance with the terms and conditions of the License,
 * including without limitation any usage restrictions under the applicable License.
 *
 * If you do not have an active Edge Impulse product plan subscription, or if use
 * of this Software exceeds the usage limitations of your Edge Impulse product plan
 * subscription, you are not permitted to use this Software and must immediately
 * delete and erase all copies of this Software within your control or possession.
 * Edge Impulse reserves all rights and remedies available to enforce its rights.
 *
 * Unless required by applicable law or agreed to in writing, the Software is
 * distributed on an "AS IS" BASIS, WITHOUT WARRANTIES OR CONDITIONS OF ANY KIND,
 * either express or implied. See the License for the specific language governing
 * permissions, disclaimers and limitations under the License.
 */
// Generated on: 04.12.2025 04:41:22

#include <stdio.h>
#include <stdlib.h>
#include "edge-impulse-sdk/tensorflow/lite/c/builtin_op_data.h"
#include "edge-impulse-sdk/tensorflow/lite/c/common.h"
#include "edge-impulse-sdk/tensorflow/lite/micro/micro_mutable_op_resolver.h"
#include "edge-impulse-sdk/porting/ei_classifier_porting.h"

#if EI_CLASSIFIER_PRINT_STATE
#if defined(__cplusplus) && EI_C_LINKAGE == 1
extern "C" {
    extern void ei_printf(const char *format, ...);
}
#else
extern void ei_printf(const char *format, ...);
#endif
#endif

#define STRINGIZE(x) #x
#define STRINGIZE_VALUE_OF(x) STRINGIZE(x)

#if defined (__GNUC__)  /* GNU compiler */
#define ALIGN(X) __attribute__((aligned(X)))
#define DEFINE_SECTION(x) __attribute__((section(x)))
#elif defined (_MSC_VER)
#define ALIGN(X) __declspec(align(X))
#elif defined (__TASKING__) /* TASKING Compiler */
#define ALIGN(X) __align(X)
#define DEFINE_SECTION(x) __attribute__((section(x)))
#elif defined (__ARMCC_VERSION) /* Arm Compiler */
#define ALIGN(X) __ALIGNED(x)
#define DEFINE_SECTION(x) __attribute__((section(x)))
#elif defined (__ICCARM__) /* IAR Compiler */
#define ALIGN(x) __attribute__((aligned(x)))
#define DEFINE_SECTION(x) __attribute__((section(x)))
#elif defined (__clang__) /* LLVM/Clang Compiler */
#define ALIGN(X) __ALIGNED(x)
#define DEFINE_SECTION(x) __attribute__((section(x)))
#endif

#if defined(EI_MODEL_SECTION) && (defined(__GNUC__) || defined(__clang__))
#define MODEL_SECTION(X) __attribute__((section(STRINGIZE_VALUE_OF(X))))
#else
#define MODEL_SECTION(X)
#endif

#ifndef EI_MAX_SCRATCH_BUFFER_COUNT
#ifndef CONFIG_IDF_TARGET_ESP32S3
#define EI_MAX_SCRATCH_BUFFER_COUNT 4
#else
#define EI_MAX_SCRATCH_BUFFER_COUNT 4
#endif // CONFIG_IDF_TARGET_ESP32S3
#endif // EI_MAX_SCRATCH_BUFFER_COUNT

#ifndef EI_MAX_OVERFLOW_BUFFER_COUNT
#define EI_MAX_OVERFLOW_BUFFER_COUNT 10
#endif // EI_MAX_OVERFLOW_BUFFER_COUNT

using namespace tflite;
using namespace tflite::ops;
using namespace tflite::ops::micro;

namespace {

#if defined(EI_CLASSIFIER_ALLOCATION_STATIC_HIMAX) || defined(EI_CLASSIFIER_ALLOCATION_STATIC_HIMAX_GNU)
constexpr int kTensorArenaSize = 6384;
#else
constexpr int kTensorArenaSize = 5360;
#endif

#if defined(EI_CLASSIFIER_ALLOCATION_STATIC)
#if defined (EI_TENSOR_ARENA_LOCATION)
uint8_t tensor_arena[kTensorArenaSize] ALIGN(16) DEFINE_SECTION(STRINGIZE_VALUE_OF(EI_TENSOR_ARENA_LOCATION));
#else
uint8_t tensor_arena[kTensorArenaSize] ALIGN(16);
#endif
#elif defined(EI_CLASSIFIER_ALLOCATION_STATIC_HIMAX)
#pragma Bss(".tensor_arena")
uint8_t tensor_arena[kTensorArenaSize] ALIGN(16);
#pragma Bss()
#elif defined(EI_CLASSIFIER_ALLOCATION_STATIC_HIMAX_GNU)
uint8_t tensor_arena[kTensorArenaSize] ALIGN(16) __attribute__((section(".tensor_arena")));
#else
#define EI_CLASSIFIER_ALLOCATION_HEAP 1
uint8_t* tensor_arena = NULL;
#endif

static uint8_t* tensor_boundary;
static uint8_t* current_location;

template <int SZ, class T> struct TfArray {
  int sz; T elem[SZ];
};

enum used_operators_e {
  OP_RESHAPE, OP_CONV_2D, OP_MAX_POOL_2D, OP_FULLY_CONNECTED, OP_SOFTMAX,  OP_LAST
};

struct TensorInfo_t { // subset of TfLiteTensor used for initialization from constant memory
  TfLiteAllocationType allocation_type;
  TfLiteType type;
  void* data;
  TfLiteIntArray* dims;
  size_t bytes;
};

typedef struct {
  TfLiteTensor tensor;
  int16_t index;
} TfLiteTensorWithIndex;

typedef struct {
  TfLiteEvalTensor tensor;
  int16_t index;
} TfLiteEvalTensorWithIndex;

TfLiteContext ctx{};
static const int MAX_TFL_TENSOR_COUNT = 4;
static TfLiteTensorWithIndex tflTensors[MAX_TFL_TENSOR_COUNT];
static const int MAX_TFL_EVAL_COUNT = 4;
static TfLiteEvalTensorWithIndex tflEvalTensors[MAX_TFL_EVAL_COUNT];
TfLiteRegistration registrations[OP_LAST];

namespace g0 {
const TfArray<2, int> tensor_dimension0 = { 2, { 1,78 } };
const MODEL_SECTION(EI_MODEL_SECTION) ALIGN(16) float tensor_data1[8] = { 0.004726015031337738, -0.0040055541321635246, 0.0085544642060995102, 0.03572390228509903, 0.0078934971243143082, 0.017863519489765167, 0.0053632068447768688, 0.0093591799959540367, };
const TfArray<1, int> tensor_dimension1 = { 1, { 8 } };
const MODEL_SECTION(EI_MODEL_SECTION) ALIGN(16) int32_t tensor_data2[4] = { 1, 1, 78, 1, };
const TfArray<1, int> tensor_dimension2 = { 1, { 4 } };
const MODEL_SECTION(EI_MODEL_SECTION) ALIGN(16) int32_t tensor_data3[4] = { 1, 78, 1, 8, };
const MODEL_SECTION(EI_MODEL_SECTION) ALIGN(16) float tensor_data4[8*1*3*1] = { 
  /* [0][0][][] */ -0.00049250607844442129, 0.24118316173553467, 0.010254825465381145, 
  /* [1][0][][] */ -0.46377572417259216, -0.38500943779945374, -0.080082342028617859, 
  /* [2][0][][] */ 0.29916924238204956, 0.44509661197662354, -0.3995797336101532, 
  /* [3][0][][] */ -0.42054271697998047, -0.035053111612796783, -0.00032450188882648945, 
  /* [4][0][][] */ 0.3890836238861084, -0.22317004203796387, -0.068857356905937195, 
  /* [5][0][][] */ -0.13693653047084808, 0.1172417551279068, -0.034350693225860596, 
  /* [6][0][][] */ 0.21818670630455017, 0.41714748740196228, -0.062246374785900116, 
  /* [7][0][][] */ 0.33563750982284546, -0.0077768065966665745, 0.23640923202037811, 
};
const TfArray<4, int> tensor_dimension4 = { 4, { 8,1,3,1 } };
const MODEL_SECTION(EI_MODEL_SECTION) ALIGN(8) float tensor_data5[2] = { 0.012613452039659023, -0.012613451108336449, };
const TfArray<1, int> tensor_dimension5 = { 1, { 2 } };
const MODEL_SECTION(EI_MODEL_SECTION) ALIGN(16) float tensor_data6[32] = { -0.00028545243549160659, -0.011757855303585529, -0.014786849729716778, 0.017097018659114838, 0.0039177872240543365, -0.0078925248235464096, 0.023311497643589973, -0.018175560981035233, 0.0051171979866921902, 0.016035947948694229, -0.020805798470973969, -0.013266948983073235, 0, 0.0023069954477250576, -0.0080081280320882797, 0.01915629580616951, -0.0023155133239924908, 0.01427946425974369, 0.013596802949905396, 0.020515568554401398, -0.0084290299564599991, 0.0046889646910130978, -0.007186484057456255, 0.0209959726780653, -0.012766515836119652, 0.020682143047451973, 0, -0.010727976448833942, -0.0073862667195498943, -0.01250489242374897, -0.013046467676758766, 0.00013922686048317701, };
const TfArray<1, int> tensor_dimension6 = { 1, { 32 } };
const MODEL_SECTION(EI_MODEL_SECTION) ALIGN(8) int32_t tensor_data7[2] = { -1, 312, };
const MODEL_SECTION(EI_MODEL_SECTION) ALIGN(16) float tensor_data8[32*312] = { 
  0.042682472616434097, 0.11902068555355072, -0.043864041566848755, 0.0028441250324249268, -0.0086690410971641541, -0.0030451631173491478, -0.094461850821971893, 0.09474337100982666, 0.038409139961004257, 0.028976693749427795, -0.1094772070646286, 0.079148411750793457, 0.0033552078530192375, 0.12281809002161026, 0.076767154037952423, -0.0046102213673293591, -0.062267720699310303, 0.035258397459983826, -0.1077306792140007, 0.11491173505783081, -0.029880478978157043, 0.12232816964387894, 0.12500903010368347, 0.037295002490282059, -0.11582357436418533, -0.12141069769859314, -0.047074936330318451, 0.10294455289840698, 0.096342287957668304, -0.0052325725555419922, -0.11818557977676392, -0.049793988466262817, 0.10871385037899017, 0.053039729595184326, 0.00088665558723732829, 0.1318853348493576, 0.050645206123590469, -0.13022181391716003, -0.042805511504411697, 0.049926809966564178, 0.076292723417282104, -0.089651778340339661, 0.058429703116416931, 0.042776361107826233, 0.04881841316819191, -0.07538323849439621, 0.07788354903459549, -0.0054766470566391945, -0.11988900601863861, -0.11083053052425385, 0.068121351301670074, 0.074256941676139832, 0.10617817938327789, -0.034450549632310867, -0.082266509532928467, 0.049424387514591217, 0.11719248443841934, 0.071567840874195099, 0.010798733681440353, -0.058550305664539337, 0.027662325650453568, 0.07594551146030426, 0.090765543282032013, -0.12714923918247223, -0.13138662278652191, -0.11940350383520126, -0.0095287412405014038, -0.10350828617811203, -0.022719338536262512, 0.066117852926254272, 0.12093388289213181, -0.098505966365337372, -0.043270234018564224, -0.068274959921836853, 0.017388621345162392, -0.0074905306100845337, 0.012106044217944145, -0.082612037658691406, -0.094876661896705627, -0.070765264332294464, -0.042737066745758057, 0.0038136541843414307, -0.058628428727388382, -0.047622673213481903, -0.064630597829818726, 0.11376333236694336, 0.055494152009487152, -0.019415510818362236, 0.10515469312667847, -0.036993451416492462, 0.0023997132666409016, -0.11964577436447144, -0.10240375995635986, -0.0170554518699646, -0.068903565406799316, 0.078959353268146515, 0.043092601001262665, 0.079240217804908752, -0.064641870558261871, -0.092223666608333588, -0.0045220339670777321, 0.10318766534328461, -0.044449556618928909, 0.10039637982845306, 0.091889709234237671, 0.001589357852935791, -0.0064676497131586075, -0.076666884124279022, -0.029632104560732841, 0.013229828327894211, -0.011779814958572388, -0.06311517208814621, 0.031195864081382751, 0.018938051536679268, -0.08113851398229599, 0.012324790470302105, 0.087210267782211304, 0.099702127277851105, -0.12877336144447327, -0.035260170698165894, 0.1162094846367836, 0.1016821563243866, -0.027673142030835152, -0.13110099732875824, -0.027642391622066498, -0.026604138314723969, -0.097789846360683441, 0.044526338577270508, -0.063144564628601074, -0.018480286002159119, -0.071735002100467682, 0.00013898313045501709, 0.0028928786050528288, -0.0032805055379867554, -0.1040942594408989, -0.0030926980543881655, -0.10369386523962021, -0.076003000140190125, -0.083661474287509918, -0.12023911625146866, 0.013960685580968857, -0.0317196324467659, 0.026120113208889961, 0.1187116950750351, 0.0033325857948511839, 0.01144842803478241, 0.090651161968708038, -0.11756854504346848, 0.12302964925765991, -0.080400027334690094, -0.045484423637390137, -0.0030288908164948225, -0.024765431880950928, 0.043983548879623413, 0.040348365902900696, -0.073153585195541382, -0.064004547894001007, -0.031953565776348114, -0.088417023420333862, 0.034698415547609329, -0.086677990853786469, -0.096851564943790436, 0.11764788627624512, -0.09148319810628891, -0.12699966132640839, -0.12944386899471283, -0.018857922405004501, -0.080066673457622528, -0.094573400914669037, 0.022629320621490479, -0.0050532384775578976, -0.12041088193655014, -0.0031376550905406475, 0.11585672199726105, 0.030441472306847572, -0.064031191170215607, -0.041101481765508652, -0.12999550998210907, 0.091754361987113953, 0.0029363185167312622, -0.11611979454755783, 0.074542127549648285, 0.012449068948626518, 0.03972596675157547, 0.092993207275867462, 0.041927307844161987, 0.087822750210762024, 0.12736444175243378, -0.064009875059127808, -0.076017051935195923, -0.1117703840136528, -0.099787920713424683, -0.026135193184018135, 0.10140107572078705, 0.11082720756530762, -0.044843286275863647, -0.11265037953853607, -0.013010993599891663, 0.10222041606903076, -0.035261347889900208, -0.051245909184217453, -0.075667381286621094, -0.037331998348236084, 0.12746734917163849, -0.13169698417186737, 0.12342001497745514, -0.036686703562736511, 0.073245793581008911, -0.082371234893798828, -0.011094674468040466, -0.020653774961829185, 0.023726090788841248, -0.012452633120119572, -0.083957619965076447, 0.048172898590564728, -0.049589157104492188, 0.079005971550941467, 0.059420332312583923, -0.0017336417222395539, 0.12143297493457794, 0.085036963224411011, 0.12789182364940643, 0.12221350520849228, 0.037318352609872818, 0.034106165170669556, 0.017852112650871277, 0.052176628261804581, 0.099000692367553711, -0.077487476170063019, 0.074271619319915771, 0.023201262578368187, -0.039522439241409302, -0.13149964809417725, 0.017837151885032654, 0.079395219683647156, -0.10039344429969788, 0.070478521287441254, -0.054923497140407562, -0.081501804292201996, 0.0330343097448349, 0.025836549699306488, -0.092483028769493103, 0.034732427448034286, 0.076773256063461304, 0.12604226171970367, -0.055852942168712616, 0.019194368273019791, -0.075532712042331696, -0.063733011484146118, -0.020903304219245911, -0.0081494860351085663, -0.0032263845205307007, 0.095796942710876465, -0.011661887168884277, 0.049707945436239243, -0.080488637089729309, 0.00023422055528499186, 0.018816232681274414, 0.017946928739547729, 0.047536745667457581, 0.005737602710723877, 0.010606434196233749, -0.053309544920921326, -0.011549303308129311, 0.10888902842998505, -0.10099075734615326, 0.11749987304210663, 0.10898889601230621, -0.078373491764068604, -0.050752080976963043, -0.023147676140069962, 0.050952106714248657, -0.044023755937814713, -0.10889726877212524, 0.12257148325443268, -0.074201732873916626, -0.13113188743591309, -0.058641254901885986, -0.11858246475458145, 0.11216259747743607, 0.047794826328754425, -0.065589591860771179, 0.05538056418299675, 0.082998022437095642, -0.0068684499710798264, 0.048929490149021149, -0.11525204032659531, 0.0070565254427492619, 0.053024709224700928, -0.10331121832132339, 0.090133152902126312, 0.12299682199954987, 0.036542370915412903, 0.040241464972496033, 0.095147266983985901, 0.022172098979353905, 0.092715509235858917, 0.10223589837551117, 0.096072830259799957, 0.12951485812664032, -0.1303933709859848, -0.080025553703308105, -0.027989167720079422, 0.12401439249515533, 0.13088907301425934, 0.072700917720794678, 0.0099507560953497887, -0.034398697316646576, -0.091465257108211517, -0.0071294382214546204, 0.054721064865589142, 0.093146771192550659, 
  -0.062843978404998779, 0.0039388537406921387, -0.0068851402029395103, -0.033882685005664825, -0.083652697503566742, -0.055741660296916962, 0.095697298645973206, 0.073521286249160767, 0.098189070820808411, 0.032630529254674911, -0.077044501900672913, -0.009254169650375843, 0.010304383002221584, 0.063252449035644531, -0.13604637980461121, 0.10726950317621231, 0.001877552829682827, 0.091504186391830444, -0.046436674892902374, 0.029912285506725311, 0.080757036805152893, -0.053017616271972656, -0.04108225554227829, -0.12772510945796967, -0.10004529356956482, 0.10434146225452423, 0.11690651625394821, 0.0056442767381668091, -0.067534826695919037, -0.0028019410092383623, 0.053733918815851212, 0.027874214574694633, -0.11194159090518951, 0.094542011618614197, 0.013956627808511257, -0.11854585260152817, -0.040162503719329834, 0.056820899248123169, -0.1309187114238739, -0.057051230221986771, -0.074755527079105377, -0.036853581666946411, -0.066469840705394745, 0.057772636413574219, 0.056989949196577072, 0.12586574256420135, 0.012480149045586586, -0.091739818453788757, 0.10520070791244507, 0.10568854212760925, 0.11677312850952148, 0.070562854409217834, -0.058289527893066406, -0.010189257562160492, -0.098800472915172577, 0.023750822991132736, 0.021933512762188911, -0.080123111605644226, 0.0050819031894207001, 0.10324709862470627, 0.001503527513705194, -0.11782316863536835, 0.10573074221611023, 0.047097910195589066, 0.090613126754760742, -0.045965779572725296, 0.078508660197257996, -0.027405543252825737, 0.083121225237846375, -0.053285501897335052, -0.083274662494659424, 0.075750015676021576, -0.1088903471827507, -0.05949140340089798, -0.036714848130941391, 0.10103940963745117, -0.085732825100421906, -0.08985118567943573, -0.079828985035419464, -0.10549691319465637, -0.0088292993605136871, -0.012507602572441101, -0.036804493516683578, 0.0026878565549850464, -0.019511528313159943, 0.044015794992446899, 0.0071982820518314838, 0.022270407527685165, -0.05432308092713356, 0.018908649682998657, 0.020421836525201797, 0.087017133831977844, 0.033197883516550064, -0.018922276794910431, 0.10444013029336929, 0.065596349537372589, -0.063506551086902618, -0.02603631466627121, -0.06158001720905304, -0.0092705544084310532, 0.11948354542255402, 0.097473561763763428, -0.052911806851625443, 0.065536893904209137, -0.090484239161014557, 0.10235072672367096, 0.097017288208007812, -0.066972330212593079, -0.070929497480392456, 0.067635864019393921, -0.10755103826522827, 0.024617183953523636, -0.045283325016498566, 0.046088617295026779, 0.083195954561233521, 0.10076019167900085, 0.028712036088109016, -0.023221096023917198, 0.080306470394134521, -0.012816750444471836, 0.024905269965529442, -0.11500797420740128, -0.10678515583276749, -0.0444607213139534, -0.0020345400553196669, -0.025515027344226837, 0.0052634915336966515, 0.079826749861240387, -0.13053517043590546, 0.04070766270160675, 0.0067895879037678242, 0.0045376420021057129, -0.13322550058364868, 0.10204838216304779, 0.012673009186983109, -0.13238026201725006, -0.024977702647447586, 0.1307922750711441, -0.081492826342582703, -0.068486467003822327, -0.027043901383876801, -0.077515155076980591, -0.10083397477865219, -0.012597093358635902, -0.019940318539738655, 0.036220625042915344, -0.010948030278086662, 0.012617781758308411, -0.010512725450098515, -0.030280999839305878, 0.087069131433963776, 0.014982703141868114, 0.03921053558588028, -0.064905591309070587, -0.055713821202516556, 0.075444169342517853, 0.10850179195404053, -0.088113106787204742, -0.060666598379611969, 0.031031079590320587, -0.084529832005500793, 0.018309170380234718, 0.056129839271306992, 0.085046686232089996, 0.057312920689582825, 0.044705409556627274, 0.047949336469173431, 0.078289374709129333, 0.11062005162239075, 0.0021201260387897491, -0.13102497160434723, 0.1110261082649231, -0.014346396550536156, -0.0051590977236628532, 0.081586830317974091, 0.10894425958395004, -0.079191595315933228, -0.034766346216201782, 0.011279738508164883, 0.032667960971593857, 0.10369047522544861, 0.019192636013031006, -0.05682111531496048, -0.01456112414598465, -0.11601629853248596, -0.10596016049385071, -0.12327919900417328, -0.10918103158473969, 0.12194788455963135, -0.0026635527610778809, 0.11437457799911499, -0.044889770448207855, 0.046561583876609802, -0.029530562460422516, 0.07391832023859024, 0.13165177404880524, -0.10845709592103958, -0.028950365260243416, 0.045674722641706467, -0.048928704112768173, -0.081293389201164246, 0.12983722984790802, 0.064462587237358093, -0.034136489033699036, -0.032046098262071609, -0.11865895986557007, -0.00023066056019160897, -0.10903824865818024, -0.030055057257413864, -0.027812933549284935, -0.088094756007194519, -0.12759095430374146, -0.12093114107847214, -0.13480235636234283, 0.080729395151138306, -0.040844667702913284, 0.0949506014585495, -0.022517450153827667, 0.096704885363578796, -0.043518338352441788, 0.14055566489696503, 0.12914550304412842, 0.086826130747795105, 0.016792740672826767, 0.034293550997972488, -0.095836915075778961, 0.04899003729224205, -0.050910592079162598, 0.108076311647892, 0.11743320524692535, 0.030271995812654495, -0.071613170206546783, -0.018506532534956932, 0.093718677759170532, -0.093172326683998108, -0.10007601231336594, 0.034190349280834198, 0.10394922643899918, 0.093359336256980896, -0.071231327950954437, -0.018909506499767303, -0.014374511316418648, 0.039689633995294571, -0.13285139203071594, -0.00062578375218436122, 0.03404582291841507, -0.059129942208528519, 0.01657448522746563, 0.066032253205776215, 0.052527759224176407, -0.0043560420162975788, 0.020624032244086266, 0.023075215518474579, -0.094980880618095398, -0.11921011656522751, -0.023273669183254242, -0.047790948301553726, 0.056094706058502197, -0.068936482071876526, -0.10094534605741501, 0.021494816988706589, 0.06201784685254097, 0.069126419723033905, 0.11746753752231598, -0.12861110270023346, 0.12398724257946014, 0.077514365315437317, 0.11823759227991104, -0.009575393982231617, 0.081058353185653687, 0.018441421911120415, -0.12687776982784271, 0.031509120017290115, 0.05913996696472168, 0.037873581051826477, -0.1382337212562561, 0.030884223058819771, -0.044578466564416885, 0.086932249367237091, 0.029279427602887154, -0.038326233625411987, -0.11207947880029678, -0.013731302693486214, -0.070969104766845703, -0.028300784528255463, 0.041217710822820663, 0.07465091347694397, 0.017566423863172531, -0.088846266269683838, -0.015077888965606689, 0.015992185100913048, 0.1050984114408493, 0.046789448708295822, -0.12115777283906937, -0.089289672672748566, -0.070932865142822266, -0.10128676146268845, 0.040403634309768677, -0.039487510919570923, 0.11480174958705902, -0.0019546363037079573, 0.013256779871881008, 0.014526290819048882, -0.10695245862007141, 0.041392434388399124, -0.00085046887397766113, -0.042400740087032318, -0.10283629596233368, -0.087198309600353241, -0.11599394679069519, -0.093820109963417053, -0.12790505588054657, 
  -0.040315456688404083, -0.048349343240261078, -0.0020994199439883232, 0.013899222016334534, 0.11361830681562424, 0.080121122300624847, 0.050325088202953339, -0.014687594957649708, -0.11227474361658096, 0.046216264367103577, -0.053231410682201385, 0.084008850157260895, 0.10181766003370285, -0.076819106936454773, -0.12203191220760345, 0.10419304668903351, -0.034961186349391937, -0.014858989976346493, 0.083191044628620148, -0.079554170370101929, -0.020173201337456703, 0.11446933448314667, 0.077873185276985168, -0.042492780834436417, 0.03404834121465683, -0.028517112135887146, -0.12942379713058472, -0.12092113494873047, -0.10545198619365692, 0.12677009403705597, 0.093930907547473907, 0.067544497549533844, 0.0052759400568902493, -0.0092134922742843628, -0.13914471864700317, -0.097379438579082489, 0.088537327945232391, -0.026361703872680664, -0.13541196286678314, 0.049510244280099869, -0.12739354372024536, -0.09695744514465332, -0.015382889658212662, -0.034155867993831635, -0.033767525106668472, 0.11008059978485107, 0.081209629774093628, 0.094763778150081635, -0.11259598284959793, -0.092880964279174805, 0.028291357681155205, 0.053926646709442139, 0.034097269177436829, 0.065248295664787292, -0.03294648602604866, -0.14248363673686981, -0.14515122771263123, 0.047708392143249512, -0.090202808380126953, -0.10414901375770569, -0.077504754066467285, 0.058937344700098038, -0.12994702160358429, 0.05884614959359169, -0.11604221910238266, 0.12042156606912613, -0.067552424967288971, 0.048788871616125107, -0.070466227829456329, -0.082141749560832977, -0.026815339922904968, 0.043937940150499344, -0.14138878881931305, 0.073672682046890259, 0.11085068434476852, -0.049905363470315933, 0.10884269326925278, 0.040896371006965637, -0.072021104395389557, -0.06123664602637291, 0.049070920795202255, -0.016684688627719879, 0.10897711664438248, -0.11248267441987991, -0.1054074689745903, 0.024716958403587341, 0.066835217177867889, 0.023640643805265427, -0.0079540209844708443, 0.12274263799190521, -0.079254813492298126, 0.083439573645591736, 0.021380186080932617, -0.07385997474193573, 0.1096501424908638, -0.0059691271744668484, -0.11870433390140533, -0.11918432265520096, 0.089138142764568329, 0.09463442862033844, -0.095264621078968048, -0.056871399283409119, 0.085574813187122345, 0.077462218701839447, -0.12356308102607727, -0.0046722888946533203, -0.040106378495693207, 0.0649709552526474, -0.065109528601169586, 0.024466335773468018, 0.098164461553096771, 0.099630020558834076, 0.077131688594818115, -0.070433519780635834, -0.1161646842956543, 0.092015556991100311, 0.062684908509254456, -0.0179639533162117, 0.0059487698599696159, 0.054945636540651321, -0.11407765001058578, -0.1045989990234375, 0.079489395022392273, 0.017906194552779198, 0.049163512885570526, -0.08630053699016571, 0.1119067594408989, 0.0073860124684870243, 0.10327331721782684, 0.12383554875850677, 0.018089117482304573, -0.021569706499576569, -0.054569996893405914, -0.011887237429618835, 0.066503778100013733, -0.095947153866291046, -0.042711023241281509, 0.041920885443687439, -0.022665848955512047, -0.099988356232643127, -0.13661296665668488, -0.10946089029312134, -0.036744821816682816, 0.045792531222105026, -0.14457352459430695, 0.10835149884223938, 0.11280557513237, -0.053814351558685303, -0.013973372057080269, 0.025915756821632385, -0.10978035628795624, -0.0038317569997161627, -0.12780611217021942, -0.12955610454082489, -0.081987887620925903, -0.054579939693212509, -0.046011753380298615, -0.10954560339450836, -0.047651350498199463, -0.11806341260671616, -0.10638707876205444, -0.10161528736352921, 0.0057244021445512772, 0.021644916385412216, -0.014483008533716202, 0.04283180832862854, 0.11601737886667252, 0.10322439670562744, -0.067354850471019745, -0.065768428146839142, -0.046409253031015396, -0.1038992628455162, 0.0073674460873007774, 0.059489838778972626, 0.076457835733890533, 0.044016417115926743, -0.13873745501041412, -0.061209350824356079, 0.033531244844198227, -0.044016905128955841, -0.018624642863869667, 0.055515758693218231, -0.13134226202964783, -0.10623131692409515, 0.03595728799700737, -0.11534850299358368, -0.0075885900296270847, -0.055019594728946686, 0.058894414454698563, 0.11179143190383911, 0.074095621705055237, 0.056551452726125717, -0.076547637581825256, -0.06077517569065094, 0.083728060126304626, 0.016452193260192871, 0.086146451532840729, -0.10343345254659653, -0.11269807815551758, -0.040370073169469833, 0.099910765886306763, 0.11846114695072174, -0.13867120444774628, 0.068996317684650421, -0.13152207434177399, 0.11106353998184204, 0.029684735462069511, -0.069970674812793732, -0.030246622860431671, -0.0067048128694295883, -0.11343906819820404, 0.092925570905208588, -0.053655575960874557, -0.010347026400268078, -0.14090186357498169, -0.13270162045955658, -0.14226412773132324, -0.10135194659233093, -0.12442195415496826, 0.0089049460366368294, -0.1285228431224823, 0.0049978871829807758, -0.093839585781097412, 0.048249665647745132, -0.065315037965774536, 0.038598351180553436, -0.027402769774198532, -0.13390913605690002, 0.037769962102174759, -0.052692737430334091, -0.081558778882026672, 0.066573947668075562, -0.10129161179065704, -0.023188967257738113, -0.0054598883725702763, -0.045090027153491974, 0.0010312632657587528, -0.034275837242603302, 0.015295196324586868, -0.12530845403671265, 0.046936996281147003, -0.086471818387508392, -0.055980775505304337, 0.1071598082780838, -0.13644492626190186, -0.10190805047750473, -0.052861005067825317, -0.090069897472858429, 0.088472314178943634, -0.062929779291152954, 0.046994950622320175, -0.063970223069190979, -0.038251608610153198, -0.06570751965045929, -0.072577640414237976, 0.088021405041217804, 0.04677918553352356, 0.058339506387710571, 0.030139941722154617, -0.12605446577072144, 0.01157321035861969, -0.0046703075058758259, 0.02997158095240593, -0.09808649867773056, 0.034976165741682053, -0.13491104543209076, 0.01702890545129776, -0.087333828210830688, -0.094498507678508759, 0.050340704619884491, -0.13505610823631287, -0.076125048100948334, -0.14239294826984406, -0.11620768904685974, -0.02267935685813427, -0.11024821549654007, -0.0362258180975914, 0.047172218561172485, 0.086166523396968842, 0.09516432136297226, -0.13723267614841461, 0.073443964123725891, -0.061114687472581863, -0.10760941356420517, -0.021560750901699066, 0.080553583800792694, -0.0021284737158566713, 0.04059099406003952, -0.11347981542348862, -0.085486844182014465, -0.0035262226592749357, 0.094018355011940002, 0.0060192001983523369, -0.086792692542076111, 0.085449099540710449, -0.072562791407108307, -0.12035876512527466, -0.12869115173816681, 0.06131415069103241, -0.11257332563400269, -0.04552851989865303, 0.1212778240442276, -0.013405092060565948, 0.064536750316619873, 0.076813302934169769, 0.074013605713844299, 0.023354578763246536, -0.099777579307556152, 0.096480868756771088, -0.11248043924570084, 0.001732242526486516, -0.086360186338424683, 
  0.06002366915345192, 0.057488799095153809, 0.092450700700283051, -0.10527565330266953, 0.018579538911581039, -0.03626592829823494, -0.0017470028251409531, -0.078335240483283997, -0.069903008639812469, -0.044212546199560165, 0.075204923748970032, 0.087361887097358704, 0.12068869173526764, 0.076078273355960846, 0.016888348385691643, -0.082849964499473572, -0.0088761206716299057, -0.10097391903400421, -0.075074166059494019, 0.045694276690483093, -0.067523069679737091, 0.12465658038854599, -0.047961000353097916, 0.10730741918087006, 0.063726775348186493, 0.10229440033435822, 0.098229147493839264, 0.05000576376914978, -0.11231520771980286, -0.04438767209649086, -0.075522914528846741, -0.020371688529849052, -0.07834237813949585, 0.11284191906452179, 0.078048065304756165, 0.044683739542961121, -0.0077247107401490211, 0.079578667879104614, 0.12569344043731689, -0.10616567730903625, 0.1148475706577301, 0.10574282705783844, -0.083644397556781769, -0.010772615671157837, -0.079188719391822815, 0.098792508244514465, -0.11242952197790146, 0.0523267462849617, 0.024554487317800522, 0.081509366631507874, 0.066706635057926178, -0.019239859655499458, 0.07529255747795105, 0.010427786968648434, 0.06203509122133255, -0.040229674428701401, 0.14036744832992554, 0.0091255763545632362, -0.021738115698099136, -0.050866931676864624, -0.092692933976650238, 0.10184996575117111, 0.0040523051284253597, -0.082391180098056793, 0.10424952208995819, -0.078402064740657806, 0.081691071391105652, 0.017405752092599869, 0.14174732565879822, 0.0043543567880988121, -0.0042060399428009987, -0.077344179153442383, 0.036520205438137054, 0.10962677001953125, 0.10726950317621231, 0.15165059268474579, 0.075758270919322968, -0.0032637794502079487, -0.027678273618221283, 0.059745017439126968, -0.020979864522814751, -0.12087336927652359, 0.10100733488798141, 0.07894587516784668, 0.039590232074260712, 0.073129907250404358, -0.11803922802209854, -0.078777998685836792, 0.10594720393419266, -0.046104006469249725, 0.12910236418247223, -0.00087027251720428467, 0.0161325354129076, 0.026944760233163834, 0.089186683297157288, -0.053878776729106903, 0.0045827212743461132, -0.091433711349964142, 0.0011790124699473381, -0.12063569575548172, 0.093789204955101013, 0.015514053404331207, -0.099659822881221771, 0.0022055748850107193, 0.025456903502345085, -0.022131092846393585, -0.02296144887804985, 0.09885096549987793, 0.066021434962749481, -0.10612854361534119, 0.08270852267742157, 0.070416569709777832, 0.12800388038158417, 0.10753992199897766, 0.062997102737426758, -0.022391725331544876, 0.14546480774879456, 0.040741346776485443, 0.13163919746875763, -0.088245324790477753, -0.10149863362312317, -0.076742291450500488, -0.098844096064567566, -0.040458418428897858, -0.011378979310393333, 0.037879221141338348, 0.021139241755008698, 0.11204167455434799, -0.025677885860204697, 0.1137109100818634, -0.10379856824874878, 0.11986623704433441, 0.12243956327438354, 0.073631539940834045, 0.010498706251382828, 0.13439498841762543, -0.098434150218963623, -0.10454927384853363, -0.056284010410308838, -0.088628560304641724, -0.032622136175632477, -0.097054332494735718, 0.064133718609809875, -0.039330903440713882, -0.0093483263626694679, -0.10482560843229294, -0.11115873605012894, 0.10030512511730194, -0.10772687941789627, -0.032674200832843781, -0.013248604722321033, -0.10080312937498093, 0.069265782833099365, 0.12897573411464691, -0.10100414603948593, 0.027361016720533371, -0.075584828853607178, 0.031191479414701462, 0.028739504516124725, -0.11005677282810211, -0.01242587435990572, 0.10366640985012054, -0.0090399030596017838, -0.043203588575124741, -0.045488473027944565, 0.095404699444770813, 0.062989600002765656, 0.1209704726934433, -0.022187458351254463, 0.1248900517821312, 0.071269914507865906, -0.029320219531655312, -0.036852993071079254, -0.13629628717899323, 0.093696996569633484, 0.021187374368309975, 0.13520355522632599, -0.1107761561870575, 0.01938813179731369, 0.11055660992860794, 0.099128961563110352, 0.015017138794064522, 0.026018472388386726, 0.030388835817575455, -0.067079126834869385, -0.076100930571556091, 0.075825035572052002, 0.045176610350608826, 0.030486026778817177, -0.035072289407253265, 0.021997246891260147, -0.055977702140808105, 0.13732603192329407, -0.055453583598136902, -0.091151170432567596, 0.081323802471160889, 0.086541451513767242, 0.054948315024375916, 0.030812585726380348, -0.065258979797363281, -0.10738305002450943, -0.10717626661062241, -0.12470788508653641, -0.10705850273370743, 0.05264751985669136, -0.068427473306655884, -0.0042576706036925316, -0.10934551060199738, 0.062536701560020447, 0.092009276151657104, 0.0080437157303094864, 0.12021531164646149, 0.10796578973531723, -0.11075261235237122, -0.1111091673374176, 0.022705346345901489, -0.016906844452023506, -0.0047897379845380783, -0.058304458856582642, 0.044237647205591202, -0.090451814234256744, -0.037639830261468887, -0.10058959573507309, 0.12583109736442566, 0.10733426362276077, 0.040132787078619003, 0.058698803186416626, -0.047294635325670242, 0.094168506562709808, -0.094351105391979218, -0.044684324413537979, -0.097915813326835632, -0.059770654886960983, 0.084353417158126831, -0.014749258756637573, 0.038382045924663544, -0.027523037046194077, -0.11343827098608017, -0.030121294781565666, -0.014327027834951878, -0.0022845782805234194, -0.11367809772491455, -0.059074070304632187, -0.0099222408607602119, 0.12743669748306274, -0.00023854130995459855, -0.023018883541226387, 0.13134205341339111, 0.076766073703765869, -0.069986239075660706, 0.095227785408496857, -0.085207320749759674, 0.046345490962266922, -0.0056359800510108471, 0.10374447703361511, 0.023779265582561493, 0.013251219876110554, 0.015399783849716187, 0.019836066290736198, -0.037394169718027115, -0.077953867614269257, 0.11188521236181259, 0.019567593932151794, 0.12629611790180206, 0.069253541529178619, -0.10047117620706558, 0.11842014640569687, -0.085871763527393341, 0.12068131566047668, -0.012132980860769749, 0.063704445958137512, -0.11882881820201874, -0.076484166085720062, 0.080040648579597473, -0.10445010662078857, 0.05404609814286232, 0.12789613008499146, 0.039143282920122147, 0.096283197402954102, 0.039534211158752441, -0.11514873057603836, 0.065477058291435242, 0.13050287961959839, -0.10891444981098175, -0.10078087449073792, 0.0073259994387626648, 0.070916257798671722, 0.10355990380048752, -0.039141390472650528, 0.037769615650177002, -0.035772036761045456, -0.088170707225799561, 0.086892202496528625, 0.08618289977312088, 0.0094082169234752655, 0.071203187108039856, 0.001096030930057168, -0.044641956686973572, -0.03949461504817009, 0.10305900871753693, -0.056653238832950592, -0.1200481578707695, 0.07675006240606308, -0.026416786015033722, -0.023404689505696297, 0.089753851294517517, 0.13764962553977966, 0.034527167677879333, 0.029749123379588127, 0.11739454418420792, 0.14247718453407288, 0.0053323078900575638, 
  -0.055156581103801727, -0.088715746998786926, -0.1272294819355011, 0.026356756687164307, -0.10186311602592468, -0.059566833078861237, -0.043419338762760162, 0.030608801171183586, 0.075936511158943176, 0.09553595632314682, -0.098995663225650787, -0.032071832567453384, -0.092532970011234283, -0.018956670537590981, 0.07556731253862381, 0.12618914246559143, -0.026410013437271118, 0.001658833003602922, -0.11278326064348221, -0.099294967949390411, -0.028870845213532448, 0.015277409926056862, 0.1253247857093811, 0.093466542661190033, -0.064474835991859436, -0.057166092097759247, -0.02348002977669239, 0.021082848310470581, -0.046131934970617294, -0.075873114168643951, -0.019946543499827385, -0.059098966419696808, -0.032687954604625702, -0.12576568126678467, 0.12687140703201294, -0.10574494302272797, -0.11394527554512024, 0.065855942666530609, 0.10167474299669266, 0.048282720148563385, -0.11943868547677994, 0.10770595073699951, 0.13312327861785889, 0.08933749794960022, 0.10581932216882706, 0.12563158571720123, -0.052297990769147873, -0.12072019279003143, -0.059882398694753647, -0.063432455062866211, -0.12233087420463562, -0.15004679560661316, -0.0047333389520645142, 0.078545376658439636, 0.042479433119297028, 0.10854336619377136, -0.037347957491874695, -0.023904925212264061, 0.00045259553007781506, -0.12910465896129608, 0.13418436050415039, 0.059002842754125595, -0.091949395835399628, -0.074654273688793182, -0.073128603398799896, 0.023236667737364769, -0.088869720697402954, -0.13347336649894714, 0.067186847329139709, -0.091146290302276611, -0.0255317073315382, 0.10453695803880692, 0.016376679763197899, 0.12181012332439423, -0.051146447658538818, 0.086854323744773865, 0.0078610656782984734, 0.096618443727493286, 0.020905794575810432, -0.062424894422292709, 0.11457673460245132, 0.12878115475177765, 0.086184583604335785, -0.11991611868143082, 0.13128052651882172, -0.1124914288520813, 0.040138505399227142, -0.028357071802020073, -0.023012144491076469, -0.10901245474815369, -0.12317340821027756, 0.033029064536094666, 0.00077230518218129873, 0.0018555223941802979, 0.019001109525561333, -0.059810187667608261, -0.072179049253463745, -0.093845486640930176, -0.03658067062497139, -0.12150423228740692, 0.10171318054199219, -0.055027030408382416, -0.081893466413021088, 0.027863072231411934, 0.12868843972682953, 0.11445942521095276, 0.014005442149937153, 0.087595179677009583, -0.10277142375707626, 0.050486158579587936, 0.12875169515609741, -0.0808749720454216, -0.02583124116063118, 0.01031669694930315, -0.0080818422138690948, -0.1311393678188324, 0.0061177294701337814, 0.094755612313747406, -0.054490339010953903, 0.11284928768873215, -0.081862360239028931, -0.074793189764022827, -0.091994047164916992, -0.065892092883586884, 0.1238313615322113, -0.0043305130675435066, 0.1313762366771698, 0.025840040296316147, 0.11480876058340073, -0.0073291882872581482, -0.021167140454053879, 0.014331504702568054, -0.0043298406526446342, 0.031392544507980347, -0.077938556671142578, -0.026799332350492477, -0.084538727998733521, -0.016960389912128448, -0.04480786994099617, -0.030588068068027496, 0.1184123307466507, 0.043318375945091248, 0.011527464725077152, -0.08685273677110672, -0.073279939591884613, 0.10745030641555786, 0.11565820127725601, 0.093106701970100403, 0.018907615914940834, 0.057431742548942566, 0.048487979918718338, 0.08370710164308548, -0.019422117620706558, 0.12536962330341339, 0.12626579403877258, 0.059535764157772064, -0.0097111687064170837, 0.057771217077970505, 0.095151156187057495, 0.014183433726429939, 0.071630969643592834, -0.11859996616840363, 0.095807231962680817, -0.01908390037715435, 0.00085219374159350991, 0.090619057416915894, -0.050416141748428345, 0.085262328386306763, 0.009769802913069725, -0.0026644880417734385, -0.014981542713940144, 0.052874796092510223, 0.035778999328613281, 0.060469035059213638, 0.02564169280230999, 0.024947205558419228, -0.099300295114517212, -0.12291863560676575, -0.083573222160339355, -0.0031881597824394703, 0.079215109348297119, 0.038419116288423538, 0.051014669239521027, 0.12151580303907394, 0.12865683436393738, -0.034979671239852905, -0.097252994775772095, 0.073737338185310364, 0.021560037508606911, 0.090466864407062531, 0.01810767874121666, 0.077615231275558472, -0.023619001731276512, 0.11923213303089142, -0.074313044548034668, -0.090648576617240906, -0.012711026705801487, -0.043994057923555374, -0.11013844609260559, 0.10027783364057541, 0.03113212063908577, -0.0039594173431396484, 0.091880857944488525, 0.016983110457658768, 0.0016997746424749494, -0.016927214339375496, 0.031850174069404602, -0.10335011035203934, 0.035293292254209518, 0.077864199876785278, -0.096977531909942627, -0.12469951063394547, -0.033813036978244781, 0.013988533988595009, -0.060674160718917847, -0.039746891707181931, 0.011319778859615326, -0.063638918101787567, 0.068619079887866974, -0.089705772697925568, -0.046695452183485031, -0.064254403114318848, 0.030045347288250923, 0.092742107808589935, -0.12076205015182495, 0.065455645322799683, 0.046095777302980423, -0.047968633472919464, -0.064920864999294281, -0.043304726481437683, 0.046687990427017212, 0.10982446372509003, -0.10371813178062439, 0.060198452323675156, -0.084251493215560913, -0.044802039861679077, -0.018940037116408348, 8.5747458797413856e-05, 0.066404543817043304, -0.035888683050870895, 0.057674847543239594, 0.069541320204734802, -0.071420125663280487, -0.033402096480131149, 0.11356859654188156, -0.070980578660964966, 0.1233501136302948, -0.026567954570055008, -0.063235409557819366, -0.011303173378109932, -0.088882379233837128, -0.10683291405439377, 0.0053682443685829639, -0.088486909866333008, 0.12519676983356476, -0.080870203673839569, -0.048205878585577011, 0.001922115683555603, -0.06010713055729866, 0.10574839264154434, -0.0012943893671035767, 0.13413801789283752, 0.065780788660049438, -0.030575145035982132, 0.084387078881263733, -0.017491022124886513, -0.073316320776939392, 0.034891329705715179, 0.10981814563274384, -0.095980748534202576, -0.10057483613491058, -0.011726003140211105, 0.041200887411832809, 0.058712515980005264, 0.058074567466974258, 0.11134863644838333, 0.056801673024892807, 0.08049444854259491, -0.05147610604763031, 0.063265964388847351, 0.013247665017843246, -0.0055061280727386475, -0.10418108105659485, -0.092208325862884521, 0.094011746346950531, 0.11281529068946838, 0.073622375726699829, 0.067107059061527252, 0.020036621019244194, -0.10324081778526306, -0.035238243639469147, 0.095635861158370972, 0.0463072769343853, 0.043555792421102524, 0.12598025798797607, 0.016928292810916901, -0.051399130374193192, -0.072994858026504517, -0.11897293478250504, -0.11961425095796585, -0.026164786890149117, -0.027853835374116898, 0.08574146032333374, -0.027311576530337334, -0.086512960493564606, 0.10793901979923248, 0.084695674479007721, -0.0021253675222396851, 0.11083663254976273, 0.046503335237503052, 0.048361737281084061, 0.053031042218208313, 
  -0.10510565340518951, 0.069433346390724182, -0.028426997363567352, -0.059278674423694611, -0.11216030269861221, -0.047599151730537415, 0.088997967541217804, -0.11588630080223083, -0.08569057285785675, 0.057052981108427048, 0.00076966267079114914, -0.093986667692661285, -0.045399423688650131, -0.012177020311355591, 0.058943096548318863, -0.0614120252430439, -0.11820683628320694, 0.013535001315176487, 0.074607878923416138, 0.089251130819320679, 0.050867650657892227, -0.029547611251473427, -0.13677498698234558, 0.019838318228721619, 0.025588922202587128, -0.10533189028501511, -0.12594865262508392, -0.033689446747303009, 0.0089495880529284477, -0.088230535387992859, 0.021323021501302719, 0.01838579960167408, 0.038727108389139175, -0.064715787768363953, -0.044809158891439438, -0.093376949429512024, 0.007392585277557373, -0.046671822667121887, 0.0942949578166008, -0.034806203097105026, -0.11611611396074295, -0.058501973748207092, -0.045177143067121506, 0.12928645312786102, -0.0077730449847877026, -0.089505016803741455, -0.13355773687362671, -0.063727304339408875, 0.0069384989328682423, 0.10762397944927216, -0.027109686285257339, -0.032230354845523834, -0.11835333704948425, -0.040440216660499573, 0.10202949494123459, 0.035728849470615387, 0.022318704053759575, -0.087947778403759003, 0.031618840992450714, 0.059614714235067368, 0.11296762526035309, -0.11713043600320816, 0.07818642258644104, -0.025072839111089706, 0.063460685312747955, 0.086343452334403992, 0.10048078745603561, -0.13057073950767517, -0.12323993444442749, 0.024566100910305977, -0.11361695826053619, -0.032716326415538788, 0.068611763417720795, 0.085199937224388123, -0.048886563628911972, 0.094709798693656921, -0.092871733009815216, -0.070832699537277222, -0.031165041029453278, 0.098109669983386993, 0.067669324576854706, 0.11734290421009064, -0.041429825127124786, 0.09935152530670166, -0.13665446639060974, -0.082121133804321289, -0.082058824598789215, -0.07530086487531662, -0.046215679496526718, 0.013793766498565674, 0.059961762279272079, 0.07353760302066803, -0.12578670680522919, -0.0072443634271621704, -0.055255640298128128, 0.031880475580692291, -0.017891090363264084, -0.11992021650075912, -0.10599712282419205, -0.089039057493209839, -0.021578593179583549, 0.10723356902599335, -0.033068664371967316, 0.041962947696447372, -0.076091237366199493, 0.044657573103904724, 0.035765919834375381, -0.11273586750030518, 0.019495515152812004, -0.030395222827792168, -0.13770127296447754, -0.089207075536251068, 0.081999331712722778, 0.037331126630306244, -0.041098210960626602, 0.059866413474082947, -0.071807704865932465, -0.11450233310461044, -0.053257439285516739, -0.030739264562726021, -0.1167689710855484, 0.062828324735164642, 0.067305795848369598, -0.1529092937707901, -0.014898068271577358, -0.087353713810443878, 0.052468985319137573, 0.055246587842702866, 0.0024619973264634609, -0.081678479909896851, 0.11981595307588577, 0.011273905634880066, 0.098595060408115387, 0.063545972108840942, 0.12006962299346924, 0.039963841438293457, -0.091759607195854187, 0.10288456082344055, -0.062591813504695892, -0.022468477487564087, 0.029790168628096581, 0.062087848782539368, -0.0014410122530534863, 0.10099715739488602, -0.028878055512905121, -0.087957814335823059, 0.010762879624962807, -0.029786176979541779, 0.089270830154418945, 0.10851636528968811, 0.081059589982032776, -0.12075457721948624, 0.061012111604213715, 0.012311249971389771, 0.031947493553161621, -0.18289195001125336, 0.073169082403182983, 0.0635942742228508, 0.10775922238826752, -0.044345017522573471, 0.07576509565114975, -0.10770436376333237, 0.11956204473972321, -0.057432346045970917, 0.052092313766479492, -0.059872947633266449, -0.090768739581108093, -0.13501919806003571, -0.0015905488980934024, 0.092575766146183014, -0.094837211072444916, -0.052445400506258011, 0.089469440281391144, 0.026380259543657303, -0.0090290848165750504, 0.095889486372470856, 0.018469378352165222, 0.038567826151847839, -0.046313509345054626, -0.078167334198951721, -0.067552544176578522, 0.077217735350131989, -0.021361775696277618, 0.027422219514846802, -0.099335812032222748, 0.061121538281440735, -0.016863957047462463, 0.095464125275611877, 0.029020626097917557, -0.126498743891716, -0.054677173495292664, -0.022383885458111763, 0.020800910890102386, 0.11383458971977234, 0.093543887138366699, 0.070202142000198364, -0.10289344936609268, 0.034051746129989624, 0.050781954079866409, -0.12805485725402832, -0.11068787425756454, 0.069414049386978149, 0.087294958531856537, -0.0028415480628609657, 0.12095816433429718, -0.023642674088478088, 0.11507909744977951, -0.037771113216876984, -0.1318252831697464, 0.11553378403186798, -0.074912659823894501, -0.0089311171323060989, -0.013074514456093311, -0.0075056599453091621, 0.055405754595994949, -0.034948177635669708, 0.096460498869419098, 0.11238395422697067, -0.029972994700074196, 0.077960029244422913, -0.13497018814086914, 0.057993993163108826, -0.036718722432851791, -0.024893052875995636, 0.056707937270402908, 0.082280635833740234, 0.048334341496229172, 0.047491438686847687, 0.0015086217317730188, 0.064485646784305573, 0.024012602865695953, -0.045356925576925278, -0.067690841853618622, -0.12752094864845276, -0.012008446268737316, 0.039171643555164337, 0.045729760080575943, 0.0074862814508378506, 0.036173399537801743, 0.10246703028678894, 0.08518681675195694, 0.10468034446239471, -0.077164098620414734, 0.022355372086167336, 0.083441406488418579, 0.05228336900472641, -0.081255197525024414, 0.1088808998465538, 0.080145619809627533, 0.061363618820905685, 0.1196010634303093, 0.093584753572940826, 0.032658983021974564, 0.056600920855998993, 0.011102292686700821, -0.091522432863712311, -0.030800813809037209, 0.086051598191261292, 0.00064595049479976296, -0.04167209193110466, -0.058958858251571655, 0.074416309595108032, 0.0065135890617966652, 0.081820100545883179, 0.017943259328603745, -0.10410501807928085, -0.020380616188049316, -0.10206419229507446, 0.046214018017053604, -0.12098414450883865, -0.057311519980430603, 0.10171575099229813, -0.051031704992055893, 0.09458962082862854, -0.018265129998326302, -0.10198847204446793, -0.0016242106212303042, 0.02358279749751091, 0.056267779320478439, 0.063753806054592133, -0.095834419131278992, 0.010450690984725952, 0.033204346895217896, -0.061888303607702255, 0.071007639169692993, 0.11062987148761749, -0.0077430605888366699, -0.1276414543390274, -0.0022518935147672892, 0.045356377959251404, -0.059414509683847427, -0.065155543386936188, -0.025269504636526108, 0.02634391188621521, 0.043441079556941986, -0.019262107089161873, 0.11961373686790466, 0.076348856091499329, -0.074769549071788788, -0.011368364095687866, 0.030650066211819649, 0.056547641754150391, -0.11062182486057281, -0.0053846817463636398, -0.034813649952411652, 0.086272388696670532, -0.046643469482660294, -0.11318855732679367, 0.12297458201646805, -0.10389726608991623, -0.060635998845100403, 0.086694799363613129, 
  0.099282622337341309, 0.046227842569351196, -0.1231549084186554, 0.03643663227558136, 0.051141615957021713, 0.062927626073360443, -0.041580859571695328, 0.024010788649320602, -0.026827538385987282, -0.059482935816049576, -0.0029756133444607258, -0.075910039246082306, -0.065399579703807831, 0.13957591354846954, -0.094498306512832642, -0.069607429206371307, 0.14518463611602783, -0.099131040275096893, 0.061307612806558609, 0.057442329823970795, 0.065292894840240479, 0.11575703322887421, 0.028006821870803833, 0.12487837672233582, 0.11198582500219345, 0.074355706572532654, -0.084539078176021576, -0.072877220809459686, 0.14226149022579193, -0.065295495092868805, 0.09874735027551651, -0.033361606299877167, -0.085217326879501343, 0.10183364152908325, -0.053789593279361725, -0.012358509004116058, 0.076532214879989624, -0.067889191210269928, -0.018178494647145271, -0.11095435917377472, -0.071450024843215942, -0.12187296897172928, -0.088851377367973328, -0.1074080765247345, -0.10069670528173447, 0.12998004257678986, 0.068797014653682709, -0.0069486484862864017, -0.12097213417291641, 0.11258094012737274, 0.11388788372278214, -0.034781415015459061, 0.089677214622497559, 0.10786037892103195, 0.070077843964099884, -0.089708961546421051, -0.0087842941284179688, 0.11258047074079514, 0.066834032535552979, 0.13591574132442474, 0.087425902485847473, -0.031657926738262177, 0.073908083140850067, -0.12535884976387024, -0.051004189997911453, -0.11285815387964249, 0.091461203992366791, -0.1162300780415535, 0.038075398653745651, 0.10867251455783844, 0.047914721071720123, -0.0023451398592442274, 0.011971230618655682, 0.12127320468425751, -0.064577102661132812, 0.065864942967891693, 0.035978972911834717, 0.015033957548439503, -0.040138013660907745, -0.051376067101955414, -0.074866123497486115, 0.040169417858123779, 0.14722737669944763, 0.039828956127166748, 0.10437311977148056, -0.10743521898984909, 0.096969954669475555, 0.04636794701218605, 0.12126284092664719, -0.069925472140312195, 0.0026487975846976042, -0.087817952036857605, 0.12469774484634399, -0.010347761213779449, 0.10272599011659622, 0.081245593726634979, -0.12000489979982376, -0.10321725904941559, 0.06689559668302536, -0.074334315955638885, 0.036810167133808136, 0.046858634799718857, 0.072116345167160034, -0.101186603307724, -0.034390125423669815, -0.0083420425653457642, 0.054108675569295883, 0.0023289620876312256, 0.099868610501289368, -0.035533938556909561, -0.047007203102111816, 0.098928265273571014, 0.11918824166059494, 0.044131867587566376, 0.13123269379138947, 0.051061030477285385, 0.014298860915005207, 0.12286664545536041, -0.014741417020559311, -0.086739435791969299, -0.07511584460735321, 0.11943172663450241, 0.01238289475440979, 0.041662279516458511, 0.12869417667388916, 0.028788007795810699, 0.051918216049671173, -0.035560589283704758, 0.11691556870937347, 0.017246291041374207, -0.014498910866677761, 0.037522822618484497, -0.039836261421442032, -0.12553286552429199, -0.062464475631713867, 0.030979471281170845, 0.023119835183024406, -0.043881818652153015, -0.071995936334133148, -0.043484039604663849, 0.14948779344558716, -0.048087179660797119, -0.10329569876194, -0.081381626427173615, -0.096033938229084015, -0.084577366709709167, 0.019505498930811882, 0.089789003133773804, 0.14013999700546265, 0.12060032784938812, 0.1455022394657135, 0.14641141891479492, -0.031320787966251373, 0.069223269820213318, -0.058627989143133163, -0.070999994874000549, -0.10079339891672134, 0.086380288004875183, -0.066706091165542603, -0.094208456575870514, 0.075287550687789917, 0.090789549052715302, -0.050683610141277313, 0.13958151638507843, 0.014030506834387779, 0.10987629741430283, -0.025940012186765671, -0.013123131357133389, -0.073678888380527496, -0.072483427822589874, 0.1206192746758461, 0.11334370821714401, 0.02923545241355896, 0.1058192104101181, 0.10487107187509537, 0.020291365683078766, 0.075402967631816864, -0.099641114473342896, 0.12709781527519226, 0.14049293100833893, -0.070951730012893677, -0.037417646497488022, 0.015719471499323845, 0.13469785451889038, -0.050432890653610229, -0.014571793377399445, -0.089406199753284454, 0.035031378269195557, 0.08582739531993866, -0.069190762937068939, 0.12529624998569489, 0.049992810934782028, 0.035965073853731155, -0.12328347563743591, -0.031951267272233963, -0.04033256322145462, -0.033657968044281006, -0.072450369596481323, -0.095245726406574249, 0.029982326552271843, -0.041163787245750427, -0.0012493282556533813, -0.031944006681442261, -0.10769274830818176, 0.13391782343387604, -0.039325986057519913, 0.10954330861568451, -0.036327160894870758, 0.0040419716387987137, -0.058396048843860626, 0.076046735048294067, 0.12966595590114594, 0.031104551628232002, 0.043099928647279739, -0.025779113173484802, -0.11074883490800858, 0.036679346114397049, 0.047977704554796219, 0.060010265558958054, 0.141738161444664, -0.098654128611087799, 0.01527552492916584, -0.10475945472717285, 0.088234148919582367, 0.0052358652465045452, -0.1045043021440506, 0.097008265554904938, 0.139931321144104, 0.15499413013458252, -0.0067287296988070011, -0.038804128766059875, -0.04539339616894722, -0.11190690100193024, -0.013089992105960846, -0.0012286861892789602, 0.011125877499580383, 0.11825473606586456, 0.044797841459512711, 0.11005834490060806, 0.11627161502838135, 0.12486917525529861, 0.00035165250301361084, 0.01323426142334938, -0.095364183187484741, -0.061580583453178406, -0.051723718643188477, -0.061106286942958832, 0.14184911549091339, 0.016860369592905045, 0.099695652723312378, 0.024805536493659019, 0.10082696378231049, -0.06785275787115097, -0.02397482842206955, -0.07760842889547348, 0.11426433920860291, -0.1242610365152359, -0.071929574012756348, 0.017351396381855011, -0.069880716502666473, -0.03712897002696991, -0.04709993302822113, -0.084193430840969086, -0.11768552660942078, -0.10193986445665359, 0.035976722836494446, -0.10434231907129288, 0.032567981630563736, -0.027688030153512955, 0.10203201323747635, -0.031846232712268829, -0.10969538986682892, 0.019025105983018875, -0.072971664369106293, 0.048394870012998581, 0.13394276797771454, 0.0064288969151675701, -0.038295231759548187, -0.098937377333641052, 0.080233953893184662, 0.028542781248688698, -0.024727381765842438, -0.087607070803642273, 0.040863644331693649, 0.004883048590272665, 0.10624565184116364, 0.034448031336069107, -0.074043937027454376, -0.098609395325183868, 0.034277886152267456, 0.070789985358715057, 0.050258919596672058, 0.090910471975803375, 0.08850301057100296, 0.0015573905548080802, 0.098910458385944366, 0.11822284758090973, 0.069078266620635986, -0.024019468575716019, -0.043275557458400726, 0.0069884960539638996, 0.086903274059295654, 0.064888119697570801, -0.020029895007610321, -0.033946774899959564, -0.081656157970428467, -0.013967820443212986, 0.12458734214305878, 0.058764148503541946, 0.088475555181503296, 0.071302786469459534, 0.01694953441619873, 
  -0.0035671349614858627, -0.0022660791873931885, -0.095737800002098083, 0.11280582845211029, 0.08446037769317627, 0.11071726679801941, 0.10070300102233887, 0.074697576463222504, 0.0055749383755028248, -0.090957202017307281, 0.10572891682386398, 0.11068940162658691, -0.0025415092241019011, -0.012489608488976955, 0.081939317286014557, 0.067077271640300751, -0.042043082416057587, 0.023069126531481743, -0.072050265967845917, 0.042297143489122391, -0.1424204558134079, -0.012028740718960762, -0.029212377965450287, -0.09104996919631958, -0.080110743641853333, 0.017633587121963501, 0.013876426033675671, -0.042822174727916718, -0.068706639111042023, 0.015596320852637291, 0.11050751060247421, -0.10431796312332153, -0.049072716385126114, 0.038592502474784851, -0.091970115900039673, 0.09142671525478363, 0.095554739236831665, -0.061282359063625336, 0.062724947929382324, -0.097438015043735504, 0.045364007353782654, -0.0087446123361587524, -0.13324359059333801, 0.099104657769203186, 0.046016070991754532, 0.11651328206062317, -0.083713263273239136, 0.044408377259969711, 0.12275324016809464, -0.06434379518032074, -0.063215814530849457, -0.010955835692584515, -0.072038114070892334, -0.0015090187080204487, -4.3206746340729296e-05, 0.021966785192489624, 0.019600477069616318, 0.11283312737941742, -0.083637453615665436, -0.095424138009548187, 0.098068341612815857, 0.007094087079167366, -0.012156414799392223, -0.076601102948188782, -0.059118974953889847, 0.087926827371120453, -0.093177363276481628, 0.066621400415897369, -0.04014948382973671, -0.049004003405570984, -0.015759328380227089, 0.030696077272295952, 0.0051310812123119831, 0.002835690975189209, 0.012554648332297802, -0.065641507506370544, 0.11801076680421829, -0.079859204590320587, -0.096065551042556763, 0.12356411665678024, 0.091823183000087738, 0.03142140805721283, 0.077920347452163696, 0.055326908826828003, -0.10771528631448746, -0.033973120152950287, 0.041622672230005264, 0.066120840609073639, 0.095774158835411072, 0.012342795729637146, 0.030939064919948578, -0.080723404884338379, 0.12107928842306137, -0.012004866264760494, 0.070553921163082123, -0.042575135827064514, 0.066485665738582611, 0.070438086986541748, -0.056941423565149307, 0.017859000712633133, -0.11459825187921524, 0.077568933367729187, -0.079516254365444183, -0.082428522408008575, -0.10842718183994293, -0.10797090828418732, 0.076233595609664917, 0.12312005460262299, 0.076808847486972809, 0.088129080832004547, 0.035560436546802521, -0.10016722232103348, 0.01643897220492363, 0.068906433880329132, -0.065058432519435883, -0.039125319570302963, 0.013249767944216728, -0.071309156715869904, -0.017216859385371208, 0.05263134092092514, 0.0043780403211712837, 0.0070014451630413532, -0.044311635196208954, 0.073621198534965515, 0.017572041600942612, -0.13784030079841614, 0.077417194843292236, -0.09355597198009491, -0.012244423851370811, -0.04512660950422287, 0.092528797686100006, 0.0010804235935211182, 0.0059832707047462463, -0.076992720365524292, -0.0017055351054295897, 0.065749421715736389, -0.12216996401548386, 0.086423590779304504, -0.050046227872371674, 0.05653032660484314, -0.08480256050825119, -0.040504701435565948, -0.092150814831256866, 0.083825744688510895, -0.10814698785543442, -0.090748131275177002, 0.10878942161798477, 0.072578400373458862, 0.075966939330101013, 0.030162394046783447, -0.0041718818247318268, 0.11324334889650345, 0.10324946790933609, -0.11711005866527557, 0.095849335193634033, -0.066818580031394958, -0.11575416475534439, 0.11282116174697876, -0.097023360431194305, -0.028490634635090828, 0.066054537892341614, 0.068216964602470398, -0.11907456070184708, 0.05360809713602066, 0.040400989353656769, -0.017359742894768715, -0.13110050559043884, 0.075021699070930481, 0.060055788606405258, 0.077069081366062164, -0.024132730439305305, -0.085480742156505585, 0.033338993787765503, -0.026575401425361633, -0.048581592738628387, -0.037437271326780319, 0.049717381596565247, 0.00084489583969116211, 0.086574919521808624, -0.15651464462280273, 0.067338988184928894, -0.048498716205358505, -0.059941783547401428, -0.028562158346176147, -0.046078253537416458, -0.068469837307929993, -0.091082073748111725, 0.10018317401409149, -0.084691658616065979, -0.11583078652620316, 0.09177003800868988, 0.012924114242196083, -0.11451007425785065, 0.12482412159442902, 0.050494842231273651, 0.091122463345527649, 0.11915396898984909, -0.14406083524227142, -0.062537059187889099, 0.12314726412296295, -0.092143476009368896, 0.086215749382972717, 0.036521442234516144, -0.02430964820086956, -0.028321320191025734, 0.042537059634923935, -0.087108947336673737, 0.046144057065248489, 0.065867073833942413, 0.046836115419864655, -0.11654213070869446, -0.01433623768389225, -0.095536276698112488, 0.054054867476224899, -0.044643502682447433, 0.086379170417785645, 0.0065330741927027702, -0.027106337249279022, -0.11202692240476608, -0.047775786370038986, -0.0057564782910048962, 0.099861733615398407, 0.102882020175457, -0.0092767020687460899, 0.11292311549186707, 0.060235172510147095, 0.10743926465511322, 0.065467089414596558, -0.064409911632537842, 0.023509455844759941, -0.069528758525848389, -0.10913413763046265, 0.10986017435789108, 0.017312079668045044, -0.02267950214445591, -0.12945172190666199, 0.10684634000062943, 0.00063891982426866889, 0.090715609490871429, 0.010699276812374592, 0.089357398450374603, -0.090732872486114502, 0.06042175367474556, -0.12069334834814072, -0.0012150286929681897, -0.12705257534980774, 0.089261636137962341, 0.030258901417255402, -0.052574567496776581, -0.12569718062877655, -0.011634157970547676, -0.0074891806580126286, -0.0036853929050266743, -0.019454825669527054, -0.10938865691423416, -0.042436935007572174, 0.077188707888126373, -0.10575962066650391, 0.015879498794674873, -0.099859334528446198, 0.064179129898548126, 0.025515347719192505, 0.010730907320976257, -0.062686711549758911, -0.073146209120750427, -0.023329896852374077, -0.051896631717681885, -0.05966712161898613, -0.027596179395914078, -0.032061975449323654, -0.021448483690619469, 0.1292145848274231, -0.13844825327396393, 0.045041188597679138, -0.027632804587483406, -0.08617188036441803, -0.022100916132330894, 0.10162629187107086, 0.089301928877830505, -0.10053633898496628, 0.10933165997266769, -0.092444486916065216, 0.090104967355728149, 0.052357953041791916, 0.076920405030250549, 0.035327307879924774, -0.071423470973968506, -0.077487677335739136, 0.011886787600815296, -0.057190842926502228, -0.016875529661774635, 0.036824136972427368, -0.0076672295108437538, 0.019030356779694557, 0.044991724193096161, 0.008439304307103157, -0.045226074755191803, 0.12089939415454865, 0.082611352205276489, -0.011290021240711212, -0.074640564620494843, 0.060290619730949402, -0.12638555467128754, -0.037860117852687836, 0.034144960343837738, 0.022820696234703064, 0.056236598640680313, -0.048541568219661713, -0.021572155877947807, 0.032452605664730072, 0.038721382617950439, -0.078543491661548615, 
  0.063631594181060791, 0.11258457601070404, 0.016420448198914528, 0.10204227268695831, -0.053255345672369003, -0.10517968982458115, 0.095708630979061127, -0.13843126595020294, -0.014784786850214005, 0.090324252843856812, 0.031360775232315063, -0.034527938812971115, 0.054364092648029327, 0.13762731850147247, -0.0016094553284347057, 0.092645995318889618, -0.015143181197345257, 0.01294264942407608, 0.025290103629231453, -0.023757236078381538, -0.081262923777103424, -0.07553168386220932, 0.032208379358053207, 0.12388882786035538, -0.0016583753749728203, 0.10422341525554657, 0.068167015910148621, 0.069300726056098938, 0.11371717602014542, 0.1237543597817421, 0.074312016367912292, -0.068998321890830994, 0.098217390477657318, -0.10909081995487213, 0.0069057876244187355, 0.088591530919075012, -0.025266030803322792, 0.0042615225538611412, -0.022504152730107307, 0.0063538840040564537, -0.09227578341960907, -0.12252343446016312, -0.12417033314704895, 0.12061624228954315, 0.017755540087819099, 0.0075275436975061893, 0.026204401627182961, -0.070662297308444977, 0.056701835244894028, -0.030898876488208771, -0.043235421180725098, 0.028927044942975044, -0.074257791042327881, 0.085693344473838806, -0.012612754479050636, -0.031871054321527481, -0.025580860674381256, -0.034378070384263992, -0.10322596877813339, -0.029307510703802109, -0.10005966573953629, -0.11439608782529831, -0.1183774396777153, -0.0019989523570984602, 0.080317430198192596, -0.075751714408397675, -0.0069793108850717545, -0.047617368400096893, 0.045344285666942596, 0.022651687264442444, 0.13085639476776123, -0.018779229372739792, 0.027801785618066788, -0.11403210461139679, -0.11150482296943665, 0.02705591544508934, -0.042798247188329697, -0.010978803038597107, 0.019880371168255806, -0.038253933191299438, -0.024739718064665794, 0.075079232454299927, 0.089182250201702118, 0.12629254162311554, 0.034185219556093216, 0.11069972813129425, 0.12314049154520035, -0.091445110738277435, -0.027915593236684799, 0.12957556545734406, 0.036693703383207321, -0.017440259456634521, -0.059860456734895706, 0.0024043768644332886, 0.088507473468780518, -0.0247313492000103, -0.089874066412448883, -0.07901889830827713, -0.12620091438293457, -0.0018584681674838066, 0.0015918130520731211, 0.067378200590610504, 0.10971613973379135, 0.025752324610948563, 0.12057848274707794, 0.056644752621650696, -0.12032739818096161, 0.04185900092124939, 0.12469478696584702, 0.10042450577020645, 0.08437386155128479, -0.10341119766235352, 0.11810969561338425, -0.13295312225818634, -0.074481800198554993, -0.12845161557197571, 0.1028512567281723, 0.11079961806535721, -0.067099928855895996, -0.046162817627191544, 0.10994891077280045, -0.050726290792226791, -0.13997340202331543, 0.082363612949848175, 0.0078926859423518181, -0.061121974140405655, -0.026892300695180893, 0.097828201949596405, 0.10446089506149292, -0.10650338232517242, -0.11502692103385925, -0.11314328014850616, 0.095071375370025635, 0.056885659694671631, -0.04313843697309494, 0.10035267472267151, -0.076732143759727478, -0.10711836069822311, 0.081060498952865601, -0.07442907989025116, -0.1142251119017601, 0.089988023042678833, 0.11361142992973328, 0.089702099561691284, -0.029062222689390182, 0.07455010712146759, -0.061339974403381348, -0.12113052606582642, -0.1241961196064949, -0.057594567537307739, 0.035071693360805511, -0.094696886837482452, 0.047195889055728912, 0.098334357142448425, -0.092540599405765533, -0.037636402994394302, 0.076046079397201538, 0.092145822942256927, 0.089092530310153961, -0.058475442230701447, -0.024169571697711945, 0.037867255508899689, -0.079165682196617126, -0.014183405786752701, 0.13014186918735504, 0.12852658331394196, -0.087694704532623291, 0.066613204777240753, 0.057985268533229828, -0.06961832195520401, -0.024059485644102097, 0.03081347793340683, -0.044657547026872635, 0.065745264291763306, -0.067513048648834229, 0.1115020215511322, 0.086563721299171448, -0.097516626119613647, -0.12082099169492722, 0.084876619279384613, 0.074735835194587708, -0.12999552488327026, -0.04884839802980423, -0.088283926248550415, -0.11579828709363937, 0.050880387425422668, 0.0098427534103393555, 0.10641099512577057, -0.075662299990653992, 0.035622134804725647, 0.022660050541162491, 0.075150206685066223, 0.017223646864295006, 0.12328650057315826, 0.062964335083961487, -0.076819032430648804, -0.11327611654996872, 0.026246175169944763, -0.12076078355312347, 0.019905591383576393, -0.097819522023200989, -0.01124303787946701, -0.12603995203971863, 0.087990134954452515, 0.024360019713640213, -0.1178753450512886, 0.0058631389401853085, 0.080679222941398621, 0.10151108354330063, -0.099488392472267151, 0.032210387289524078, -0.040973860770463943, -0.11378809064626694, 0.08060300350189209, 0.10575977712869644, -0.09064706414937973, -0.073010295629501343, -0.047631319612264633, -0.12946359813213348, -0.025075268000364304, 0.094342872500419617, -0.040338300168514252, -0.12404505163431168, 0.00037541170604526997, -0.081621542572975159, 0.10372934490442276, -0.0089061157777905464, 0.022323029115796089, 0.054797887802124023, -0.06899087131023407, 0.03345898911356926, 0.0048972703516483307, -0.0013256416423246264, -0.073400221765041351, 0.13109651207923889, 0.11612055450677872, 0.12493298202753067, 0.11078324913978577, 0.050476644188165665, 0.0836590975522995, -0.10898637771606445, -0.073213882744312286, -0.11281000077724457, -0.083240397274494171, 0.041362125426530838, 0.12766492366790771, 0.11295189708471298, 0.084840543568134308, -0.1243373230099678, 0.019389871507883072, -0.034882966428995132, -0.062526896595954895, -0.038175161927938461, -0.016700016334652901, -0.0023565902374684811, -0.064048990607261658, -0.079666808247566223, 0.11809729039669037, -0.0034749417100101709, -0.058845799416303635, 0.034018993377685547, 0.10605068504810333, -0.087772808969020844, 0.033647067844867706, -0.097739994525909424, -0.025711281225085258, 0.040472213178873062, -0.0050029805861413479, 0.073090322315692902, 0.023474143818020821, 0.11538045108318329, 0.10502023249864578, -0.067474879324436188, 0.09153776615858078, 0.036669936031103134, -0.14511160552501678, -0.10452033579349518, -0.0052070762030780315, 0.10657985508441925, -0.016114810481667519, 0.063821613788604736, 0.01613558828830719, 0.0090188831090927124, 0.10124566406011581, 0.068341813981533051, -0.085801132023334503, 0.048142734915018082, -0.096936874091625214, 0.12562961876392365, -0.004808276891708374, 0.10750406980514526, -0.089871495962142944, -0.069712594151496887, 0.11047431826591492, -0.014046845957636833, -0.1212722584605217, 0.042752683162689209, 0.068986326456069946, 0.1055741161108017, 0.11891700327396393, 0.11525174975395203, 0.065430104732513428, -0.052422326058149338, 0.018086588010191917, -0.023344520479440689, -0.041106611490249634, -0.11818557232618332, 0.036831006407737732, 0.12105659395456314, -0.047816548496484756, -0.045811232179403305, -0.036232057958841324, 
  0.051820229738950729, 0.060707062482833862, -0.049605336040258408, 0.087681382894515991, -0.028351457789540291, -0.018463108688592911, 0.0058232289738953114, -0.03581715002655983, 0.0053199734538793564, -0.039870623499155045, -0.02011750265955925, -0.032603401690721512, -0.0071005751378834248, -0.069842204451560974, -0.070968121290206909, -0.0062286187894642353, -0.030925929546356201, 0.12373141944408417, 0.040309425443410873, -0.027676926925778389, -0.027444593608379364, 0.099505126476287842, -0.025836655870079994, 0.057663802057504654, -0.096644386649131775, -0.052836164832115173, 0.021573789417743683, -0.073930978775024414, 0.02502121776342392, 0.029351582750678062, -0.084505073726177216, -0.10890001803636551, 0.02180977538228035, -0.076935030519962311, 0.10493069142103195, -0.067074254155158997, 0.025041628628969193, 0.13117176294326782, -0.076320365071296692, -0.08357653021812439, -0.059158544987440109, -0.065611541271209717, 0.021283732727169991, -0.0547165647149086, -0.032072003930807114, -0.055392049252986908, 0.042024675756692886, 0.097699671983718872, 0.085581488907337189, 0.041451722383499146, 0.064258575439453125, 0.0095682172104716301, 0.0098964869976043701, 0.0046352515928447247, 0.060926917940378189, 0.11710693687200546, 0.12293560802936554, -0.077068477869033813, -0.040366970002651215, 0.075741477310657501, 0.075743012130260468, 0.10213812440633774, 0.06231415644288063, 0.081166297197341919, 0.097288832068443298, -0.039674010127782822, 0.076981417834758759, -0.12055902928113937, 0.066056601703166962, -0.096087314188480377, 0.055988788604736328, -0.066808409988880157, 0.11456962674856186, -0.12643243372440338, -0.001806723652407527, 0.036725845187902451, -0.071728840470314026, -0.052069749683141708, -0.05107179656624794, 0.047216128557920456, 0.015596029348671436, -0.066639505326747894, 0.064688712358474731, -0.061200633645057678, 0.088199712336063385, 0.057798832654953003, 0.077199257910251617, -0.059292975813150406, 0.02848060242831707, -0.1217477098107338, 0.074277102947235107, 0.026053279638290405, 0.048203367739915848, 0.066651299595832825, 0.12316777557134628, -0.056950904428958893, -0.084042422473430634, -0.024907521903514862, -0.034415911883115768, 0.045225623995065689, 0.11210890114307404, 0.12139833718538284, -0.10914002358913422, 0.096226729452610016, -0.074072174727916718, 0.053622350096702576, -0.024181507527828217, 0.097002595663070679, 0.062580451369285583, -0.11942151188850403, -0.041777875274419785, 0.10333613306283951, -0.11747579276561737, 0.10826879739761353, -0.038605771958827972, 0.0072983237914741039, -0.11719867587089539, -0.0052474802359938622, 0.033265583217144012, -0.065397337079048157, -0.058051895350217819, 0.14599552750587463, -0.10522136837244034, 0.027638241648674011, 0.15613734722137451, 0.075060375034809113, -0.038821931928396225, 0.051881998777389526, 0.058070898056030273, -0.10140293091535568, 0.0032687485218048096, -0.047623112797737122, -0.061911981552839279, -0.031166017055511475, 0.036986112594604492, 0.059014603495597839, 0.093995586037635803, 0.045246988534927368, -0.017877254635095596, -0.030546881258487701, -0.033032748848199844, 0.057632327079772949, 0.023046856746077538, 0.010719849728047848, -0.02908598817884922, 0.07490888237953186, -0.019281646236777306, -0.015389673411846161, 0.044813312590122223, -0.074892729520797729, 0.1243785098195076, 0.14008453488349915, -0.095721304416656494, 0.04868943989276886, 0.095690838992595673, -0.10427769273519516, 0.043813087046146393, 0.084463410079479218, -0.10493502020835876, -0.04697757214307785, 0.040844142436981201, 0.016186101362109184, 0.048549164086580276, 0.043579556047916412, 0.096978768706321716, 0.11294838786125183, 0.016694555059075356, -0.10937684774398804, 0.077857643365859985, 0.024485532194375992, -0.040121123194694519, -0.072996057569980621, 0.03078334778547287, -0.049078091979026794, 0.11990594863891602, 0.06982877105474472, -0.093413859605789185, 0.058588594198226929, -0.12438108026981354, -0.077908873558044434, -0.1270168125629425, 0.017075177282094955, -0.076972499489784241, 0.064083464443683624, -0.11559975892305374, -0.10683270543813705, -0.048353061079978943, 0.081732764840126038, -0.084220312535762787, -0.054263301193714142, -0.030237214639782906, 0.03667859360575676, 0.023797210305929184, 0.10176670551300049, 0.081372380256652832, 0.048754021525382996, -0.048850428313016891, -0.097447484731674194, -0.10544860363006592, -0.0026019162032753229, -0.061428792774677277, 0.09434056282043457, 0.029073525220155716, -0.12114045768976212, 0.051782913506031036, 0.10689626634120941, 0.075505226850509644, -0.058145772665739059, -0.076671376824378967, -0.045230045914649963, 0.088037990033626556, -0.10817192494869232, -0.023539811372756958, -0.01781831867992878, 0.021260062232613564, 0.12426065653562546, -0.067912645637989044, 0.03469432145357132, 0.092020541429519653, -0.083628423511981964, -0.041797596961259842, -0.078817859292030334, -0.021259114146232605, 0.004477180540561676, -0.10913529247045517, -0.10782140493392944, -0.070360317826271057, 0.14416849613189697, 0.020504135638475418, 0.051303863525390625, -0.088358864188194275, -0.07440938800573349, -0.066335685551166534, -0.044689059257507324, -0.11999810487031937, 0.058892324566841125, 0.1014738529920578, 0.12901495397090912, 0.020922493189573288, 0.13412114977836609, 0.066877402365207672, 0.037288576364517212, 0.041058618575334549, 0.095979541540145874, -0.018891256302595139, 0.073127858340740204, -0.1222967803478241, 0.10235635936260223, 0.12155944854021072, 0.11723308265209198, -0.07253226637840271, 0.012433424592018127, 0.063325412571430206, -0.10943829268217087, -0.099719949066638947, -0.037197653204202652, -0.043255425989627838, 0.08282896876335144, 0.037431202828884125, 0.10624680668115616, 0.011612373404204845, -0.093928247690200806, -0.0066504664719104767, -0.058448348194360733, 0.079381592571735382, -0.028187176212668419, -0.098176121711730957, 0.036288052797317505, 0.056226562708616257, 0.010801428928971291, -0.097571998834609985, 0.068046607077121735, 0.093635514378547668, -0.0023429852444678545, -0.073766246438026428, 0.033460371196269989, -0.053638063371181488, -0.012244224548339844, 0.064895965158939362, 0.047891467809677124, 0.017673199996352196, -0.0044089555740356445, 0.041183590888977051, -0.034340463578701019, -0.092353031039237976, -0.061821397393941879, -0.074891790747642517, 0.066393524408340454, -0.079626552760601044, 0.010562539100646973, -0.077879153192043304, 0.05003105103969574, 0.02381746843457222, -0.10718874633312225, -0.097290836274623871, 0.0099599948152899742, 0.019715191796422005, -0.081218481063842773, -0.040687974542379379, -0.10266607999801636, 0.082223936915397644, -0.076873838901519775, 0.088677659630775452, -0.082913957536220551, -0.099995978176593781, 0.013556674122810364, -0.10025053471326828, -0.075765207409858704, 0.13449391722679138, 0.12530949711799622, 0.0017263491172343493, -0.10075531154870987, 
  -0.1115034893155098, -0.054643541574478149, 0.0059146052226424217, 0.070561423897743225, -0.14345705509185791, -0.054502200335264206, -0.081698052585124969, -0.11513552069664001, -0.091545678675174713, -0.063749015331268311, -0.11307576298713684, -0.057428505271673203, -0.031867325305938721, -0.044547237455844879, 0.0091690020635724068, 0.066800720989704132, 0.088671326637268066, 0.07543490082025528, -0.04141906276345253, 0.078140988945960999, 0.016890959814190865, -0.14002469182014465, 0.02599547803401947, -0.10603301227092743, 0.070232994854450226, -0.046478107571601868, 0.053012911230325699, 0.092113643884658813, -0.14620062708854675, 0.109085813164711, 0.021381700411438942, -0.13644014298915863, -0.11241155117750168, -0.093357652425765991, -0.061018660664558411, 0.086038127541542053, -0.026759238913655281, -0.0450429767370224, 0.070818379521369934, 0.10205911844968796, 0.026176484301686287, -0.12459652870893478, -0.057757195085287094, 0.031486839056015015, -0.13112394511699677, 0.11116777360439301, -0.13204498589038849, 0.091904543340206146, 0.06311209499835968, 0.11176548898220062, 0.097762979567050934, 0.070351928472518921, 0.088210403919219971, -0.12679672241210938, 0.034031391143798828, -0.025196295231580734, 0.08075983077287674, 0.13020050525665283, -0.090918280184268951, -0.094266019761562347, 0.082197435200214386, -0.128103107213974, 0.070246413350105286, -0.0076317265629768372, 0.020811703056097031, -0.083639711141586304, -0.10815104097127914, 0.1310511976480484, 0.0052761873230338097, -0.027147822082042694, -0.067422278225421906, 0.014513872563838959, -0.038580268621444702, -0.058250769972801208, -0.12259163707494736, 0.042594239115715027, -0.10601280629634857, -0.072402462363243103, -0.028719589114189148, -0.11115247011184692, 0.02548515610396862, -0.058784730732440948, -0.068795464932918549, -0.026366300880908966, 0.065209262073040009, -0.087299257516860962, -0.10967173427343369, 0.00087802071357145905, -0.016040544956922531, -0.093758299946784973, 0.11302242428064346, 0.12692980468273163, -0.069451294839382172, 0.12261886894702911, -0.062441196292638779, 0.10390974581241608, 0.098955072462558746, -0.11155656725168228, -0.064515925943851471, 0.02116711437702179, 0.05952318012714386, 0.11176568269729614, -0.031893040984869003, -0.064020484685897827, -0.030365154147148132, 0.040513619780540466, 0.0159597247838974, 0.091826766729354858, 0.056202497333288193, 0.019616089761257172, -0.13627699017524719, -0.033905453979969025, -0.10560841113328934, 0.022067062556743622, 0.001729426090605557, -0.13816036283969879, -0.025353483855724335, -0.10107016563415527, -0.061847999691963196, -0.0020667093340307474, 0.11162253469228745, -0.083875365555286407, 0.060385730117559433, -0.061175446957349777, -0.057910379022359848, -0.072701208293437958, 0.025252358987927437, 0.066416412591934204, -0.12620633840560913, -0.0909857377409935, 0.090594321489334106, 0.10661379992961884, -0.010013289749622345, 0.042244091629981995, 0.10512356460094452, -0.068507686257362366, -0.042599279433488846, -0.10020653903484344, -0.14548180997371674, 0.10934959352016449, -0.10370713472366333, 0.071740299463272095, -0.056017812341451645, -0.0085086999461054802, 0.04772808775305748, 0.011137112975120544, -0.02167913131415844, 0.022813484072685242, 0.055892474949359894, 0.019683331251144409, -0.095534853637218475, 0.055702649056911469, -0.1110185980796814, -0.029952622950077057, -0.027183964848518372, 0.088940821588039398, 0.05366617813706398, -0.02786184661090374, -0.024620922282338142, -0.041985798627138138, 0.10451989620923996, 0.093383960425853729, 0.0058241775259375572, 0.054474487900733948, -0.013823553919792175, 0.090279534459114075, -0.0078940978273749352, -0.041325371712446213, 0.10616759955883026, -0.049859926104545593, 0.046257760375738144, -0.09612332284450531, -0.09601990133523941, 0.10109696537256241, -0.14033183455467224, -0.029340822249650955, 0.076653085649013519, -0.00085824728012084961, -0.08311045914888382, -0.15880905091762543, 0.09190899133682251, -0.085650578141212463, 0.053414881229400635, -0.11841212958097458, -0.023277370259165764, -0.1316387802362442, -0.023647835478186607, 0.12030236423015594, 0.095748834311962128, -0.00070340483216568828, 0.032183151692152023, 0.0099361687898635864, -0.02190534770488739, 0.00036342442035675049, -0.074840962886810303, 0.022433429956436157, -0.12245732545852661, 0.087551683187484741, 0.097203560173511505, -0.060403473675251007, -0.040675971657037735, 0.015062674880027771, -0.00079566787462681532, -0.12917850911617279, -0.076896227896213531, -0.11829876899719238, -0.036127496510744095, 0.12961204349994659, 0.070776320993900299, -0.12185581028461456, 0.023904064670205116, -0.1281905323266983, 0.085327893495559692, 0.10278647392988205, -0.037677798420190811, 0.1362791508436203, -0.13597291707992554, -0.11965003609657288, 0.093281194567680359, 0.04571998119354248, -0.023988392204046249, -0.072528667747974396, 0.019075887277722359, 0.064093232154846191, -0.04142310842871666, -0.062351811677217484, -0.13060508668422699, 0.02341473288834095, -0.12836521863937378, -0.010986381210386753, 0.028926689177751541, 0.089245207607746124, -0.055516500025987625, 0.092611312866210938, -0.061363112181425095, 0.030397340655326843, -0.095417916774749756, 0.052535690367221832, -0.10109478980302811, 0.10940767824649811, -0.064236454665660858, -0.087615549564361572, -0.14048875868320465, -0.11764370650053024, -0.010513464920222759, 0.036539033055305481, 0.095034271478652954, -0.11036843061447144, -0.038030005991458893, -0.039706997573375702, -0.07496960461139679, -0.10227660834789276, -0.039208568632602692, -0.12928150594234467, 0.0067015900276601315, -0.071454167366027832, -0.008890446275472641, 0.10036900639533997, 0.021670188754796982, 0.029135687276721001, 0.030604435130953789, -0.02724887803196907, 0.032768357545137405, 0.010339641012251377, 0.01528730895370245, 0.11422247439622879, -0.11229498684406281, -0.14101280272006989, -0.00015829816402401775, -0.15674935281276703, 0.085233166813850403, -0.13621871173381805, -0.014735561795532703, -0.049524608999490738, -0.11691991239786148, 0.082550324499607086, 0.10976412147283554, -0.1375938206911087, -0.12834753096103668, 0.029318157583475113, 0.027529226616024971, 0.12233529984951019, -0.14812172949314117, 0.015357875265181065, -0.1120385080575943, -0.057019207626581192, 0.035678531974554062, -0.025026826187968254, -0.050681766122579575, 0.069679364562034607, 0.07945726066827774, 0.051567256450653076, 0.027965821325778961, -0.040073104202747345, -0.028992053121328354, -0.11260604858398438, 0.087553426623344421, 0.041552543640136719, -0.12956647574901581, 0.024676501750946045, 0.10647988319396973, -0.031527720391750336, -0.05006035789847374, 0.094569236040115356, 0.032758068293333054, -0.099937155842781067, -0.098038449883460999, 0.096530228853225708, 0.09542430192232132, 0.026634735986590385, 0.055519081652164459, -0.083455078303813934, 
  -0.12205579876899719, -0.074868358671665192, 0.094982042908668518, -0.066453985869884491, -0.054331567138433456, 0.045517634600400925, 0.13272973895072937, -0.0011304453946650028, -0.052367061376571655, -0.10605990886688232, -0.12508223950862885, -0.104852095246315, 0.098394528031349182, 0.050307057797908783, 0.067085027694702148, 0.035159975290298462, -0.058264922350645065, -0.13916151225566864, -0.079457953572273254, -0.1025412306189537, -0.030151426792144775, -0.049605518579483032, -0.12274375557899475, 0.048398274928331375, -0.052550986409187317, 0.070646688342094421, 0.082799963653087616, -0.0886983722448349, 0.019272977486252785, 0.040108460932970047, -0.051926355808973312, -0.1350267231464386, -0.051504302769899368, -0.082550019025802612, -0.11215675622224808, 0.07598423957824707, 0.073703445494174957, 0.060917124152183533, 0.10750195384025574, 0.026346582919359207, -0.073955923318862915, -0.10800983011722565, -0.012845201417803764, -0.063377983868122101, -0.067172810435295105, 0.0041417279280722141, 0.0373346246778965, 0.086030274629592896, -0.10118661820888519, -0.0009880363941192627, -0.12858961522579193, -0.059393014758825302, 0.015056788921356201, 0.088823840022087097, -0.012702678330242634, -0.010425962507724762, 0.12038663774728775, 0.11341606080532074, -0.13124546408653259, 0.1285979151725769, 0.0096357222646474838, -0.046758320182561874, 0.11857405304908752, 0.093741089105606079, -0.092120766639709473, -0.0044042537920176983, -0.11903838813304901, 0.01503028254956007, -0.064482860267162323, 0.051092784851789474, -0.11826959252357483, 0.017411589622497559, -0.13510970771312714, -0.099037565290927887, 0.039299055933952332, -0.012809356674551964, 0.072609357535839081, 0.10698913037776947, -0.048525914549827576, 0.055802799761295319, 0.063839808106422424, -0.045624300837516785, 0.062700875103473663, -0.0036128312349319458, -0.079259902238845825, -0.035632848739624023, 0.10931813716888428, 0.051962114870548248, 0.045602269470691681, 0.097964942455291748, 0.088991120457649231, 0.12222678959369659, 0.090558424592018127, 0.087601959705352783, -0.020348602905869484, 0.11703769862651825, 0.030621491372585297, -0.086929813027381897, -0.034256353974342346, -0.1175907626748085, -0.03641786053776741, -0.10034091770648956, 0.10324359685182571, 0.057859685271978378, -0.012714901939034462, 0.0075035691261291504, 0.053083386272192001, -0.030531294643878937, -0.089862339198589325, 0.11389980465173721, -0.03024742566049099, 0.1029493510723114, -0.02032674103975296, -0.086787648499011993, -0.12250440567731857, 0.058636266738176346, -0.073143661022186279, -0.083375550806522369, -0.10444609820842743, -0.020773323252797127, -0.084351174533367157, -0.015870250761508942, -0.084482356905937195, -0.11595156043767929, -0.085374005138874054, 0.06227986142039299, 0.067293696105480194, -0.081419147551059723, -0.11429672688245773, -0.082264870405197144, 0.095016166567802429, 0.011497423052787781, -0.041375033557415009, -0.11868125200271606, 0.10031226277351379, -0.0066108591854572296, -0.022721892222762108, -0.033213518559932709, -0.1189492791891098, 0.047838717699050903, 0.026117743924260139, -0.11533042788505554, 0.0685468390583992, -0.065464340150356293, 0.0081899482756853104, -0.014060124754905701, -0.0054469997994601727, 0.10000787675380707, -0.13303552567958832, 0.017452701926231384, 0.069362513720989227, -0.087985560297966003, 0.070747606456279755, 0.10950201749801636, 0.10417183488607407, -0.025457343086600304, 0.062258370220661163, -0.079315796494483948, 0.026820380240678787, -0.0087931100279092789, 0.047607384622097015, 0.046486251056194305, 0.044884316623210907, 0.024276841431856155, 0.074859075248241425, -0.0017103698337450624, -0.11451052129268646, -0.093554556369781494, -0.11757883429527283, -0.065828666090965271, -0.11796031147241592, -0.085656933486461639, 0.047669418156147003, 0.0064574987627565861, 0.08875700831413269, 0.0077237589284777641, 0.071379803121089935, 0.090997889637947083, -0.082070693373680115, 0.088232509791851044, 0.070667169988155365, 0.092488162219524384, 0.005788012407720089, -0.12450281530618668, 0.0036691040731966496, -0.12251225858926773, 0.093680545687675476, -0.042206220328807831, -0.11398676037788391, 0.038898646831512451, -0.0013863329077139497, -0.090807467699050903, -0.12441594153642654, 0.12800230085849762, 0.028790844604372978, -0.079511895775794983, 0.11823572218418121, 0.062279734760522842, 0.061836127191781998, 0.07655470073223114, -0.09690297394990921, 0.067431986331939697, 0.084578290581703186, 0.048415176570415497, -0.078362464904785156, 0.11029710620641708, 0.033292930573225021, -0.015994170680642128, 0.048261463642120361, 0.029848331585526466, 0.086463674902915955, 0.12636880576610565, -0.048097208142280579, -0.061327558010816574, 0.0054287356324493885, 0.013637682422995567, 0.039202425628900528, -0.12801256775856018, -0.011292554438114166, 0.073720782995223999, -0.049943048506975174, 0.078541100025177002, 0.11292149126529694, -0.065352857112884521, 0.12364852428436279, 0.021291330456733704, 0.093938559293746948, 0.020097089931368828, -0.000644659623503685, -0.082692012190818787, 0.090114675462245941, 0.025897763669490814, -0.025875674560666084, -0.007685735821723938, -0.12256773561239243, 0.069243587553501129, 0.10196066647768021, -0.071522623300552368, -0.088437661528587341, -0.029555974528193474, -0.095150992274284363, 0.090214073657989502, 0.058728218078613281, -0.0026814716402441263, 0.030534029006958008, -0.12656067311763763, -0.12483589351177216, 0.12194385379552841, 0.048959154635667801, 0.024975869804620743, -0.036926761269569397, 0.024765735492110252, -0.014424905180931091, 0.062547534704208374, 0.068060189485549927, -0.079173736274242401, 0.043442364782094955, -0.042540296912193298, 0.064235016703605652, 0.12138380110263824, 0.031900204718112946, 0.066325411200523376, 0.024145886301994324, 0.11961253732442856, 0.010933971032500267, 0.041814517229795456, 0.11463456600904465, -0.14019127190113068, -0.050365999341011047, 0.11502073705196381, -0.13774071633815765, 0.035611789673566818, 0.066275402903556824, -0.053492385894060135, 0.05991586297750473, 0.12309569865465164, 0.063569419085979462, -0.058968096971511841, -0.072200469672679901, 0.0062202094122767448, -0.0032366332598030567, -0.12079977989196777, 0.010696901939809322, -0.06294318288564682, 0.087065793573856354, 0.057518042623996735, 0.03616660088300705, -0.11442998796701431, 0.12469839304685593, 0.067477479577064514, 0.122189000248909, -0.048079304397106171, 0.020865339785814285, -0.045505791902542114, 0.081416942179203033, -0.075292609632015228, -0.11468710005283356, 0.056603386998176575, -0.086004793643951416, -0.092882350087165833, 0.089922860264778137, -0.13455596566200256, 0.09222903847694397, 0.11187738180160522, 0.059588085860013962, 0.11312215030193329, -0.11603192239999771, -0.049925066530704498, 0.11700022220611572, 0.079255819320678711, -0.10318835824728012, -0.05243276059627533, 
  -0.1092156395316124, -0.095745280385017395, -0.037636265158653259, 0.10723958909511566, 0.061359554529190063, -0.11007074266672134, -0.11335799098014832, -0.10963331907987595, 0.07002711296081543, 0.082404583692550659, 0.056952863931655884, -0.068846017122268677, -0.12118326872587204, -0.035956315696239471, 0.034581646323204041, 0.018805205821990967, 0.086268395185470581, -0.041712209582328796, 0.035864025354385376, 0.0030940771102905273, 0.0033555775880813599, 0.076990127563476562, 0.023843154311180115, 0.016847044229507446, -0.030252471566200256, -0.066832967102527618, -0.0078690126538276672, -0.05317358672618866, -0.058018520474433899, 0.017435982823371887, 0.008633151650428772, 0.02388685941696167, 0.12671898305416107, 0.081487476825714111, 0.075718358159065247, -0.020624078810214996, 0.07828114926815033, -0.053905762732028961, -0.050333425402641296, 0.091961726546287537, -0.084958523511886597, -0.030914902687072754, 0.031324908137321472, 0.093924865126609802, 0.043614715337753296, -0.010987706482410431, -0.12168649584054947, 0.012503787875175476, -0.11819804459810257, 0.094142228364944458, -0.089040547609329224, -0.026482522487640381, -0.079302728176116943, -0.12781564891338348, 0.059660643339157104, -0.04978884756565094, -0.034935526549816132, 0.030487596988677979, -0.12493515014648438, 0.069788932800292969, -0.098636165261268616, -0.024036236107349396, 0.1193871945142746, 0.10235394537448883, 0.040498599410057068, -0.11860933154821396, -0.12943217158317566, -0.10080382227897644, 0.10997794568538666, -0.074773803353309631, 0.1068623960018158, 0.092011064291000366, -0.02685035765171051, 0.096008166670799255, 0.10690058767795563, 0.024330899119377136, 0.046750500798225403, 0.0035769343376159668, 0.073489993810653687, -0.093045011162757874, -0.050970949232578278, 0.086671710014343262, -0.12616926431655884, -0.079199478030204773, 0.075678184628486633, 0.091004252433776855, -0.054351530969142914, 0.10370141267776489, 0.13014988601207733, 0.09669087827205658, -0.1117691695690155, 0.11246302723884583, -0.022924289107322693, -0.10787235200405121, 0.062160372734069824, 0.010042682290077209, -0.018836192786693573, -0.12816320359706879, 0.065406784415245056, -0.047589361667633057, -0.044815041124820709, 0.0078134089708328247, -0.13060382008552551, -0.077496170997619629, 0.10366696119308472, -0.096324458718299866, -0.037179417908191681, -0.061119332909584045, 0.065491631627082825, -0.10106157511472702, -0.11436747759580612, -0.03842587023973465, -0.027038462460041046, -0.065252266824245453, 0.030779063701629639, 0.13030789792537689, 0.084056437015533447, -0.028475925326347351, 0.090963661670684814, -0.078679710626602173, 0.020013689994812012, -0.13127484917640686, -0.022591531276702881, -0.00010132789611816406, -0.095556572079658508, -0.017862945795059204, -0.087187319993972778, -0.11228320002555847, 0.039305225014686584, 0.053290814161300659, 0.09815138578414917, 0.00077018141746520996, 0.020017698407173157, -0.12712250649929047, 0.036077097058296204, 0.1155657023191452, 0.080118626356124878, 0.038148850202560425, 0.089451804757118225, -0.10352083295583725, -0.039873003959655762, -0.041657611727714539, -0.12074329704046249, 0.052938535809516907, -0.11787718534469604, 0.12097753584384918, -0.089135631918907166, -0.054079160094261169, 0.11117503046989441, 0.013472601771354675, 0.09828580915927887, -0.05870075523853302, 0.039893999695777893, -0.037966065108776093, -0.050869561731815338, 0.011582657694816589, -0.083548702299594879, -0.04901479184627533, -0.0064989924430847168, -0.10032813996076584, -0.077389240264892578, 0.10500553250312805, -0.093660309910774231, 0.044954314827919006, 0.095754534006118774, -0.038257010281085968, 0.011807605624198914, -0.012405961751937866, 0.10760235786437988, 0.062773168087005615, -0.1252320408821106, -0.063575819134712219, 0.022353708744049072, -0.0066295117139816284, -0.11612639576196671, -0.075816035270690918, -0.055861696600914001, 0.0097565501928329468, -0.020477250218391418, 0.062397688627243042, 0.035361871123313904, 0.11359304189682007, -0.0085155069828033447, 0.017402723431587219, 0.11837594211101532, 0.036349564790725708, -0.087775252759456635, -0.030032724142074585, 0.038011148571968079, 0.11130356788635254, -0.10007570683956146, -0.055885061621665955, -0.058660075068473816, 0.056792706251144409, 0.10179485380649567, -0.064613990485668182, 0.072288066148757935, -0.07577456533908844, -0.011650830507278442, 0.10045774281024933, 0.10400132834911346, 0.11816050112247467, 0.08445991575717926, 0.11123907566070557, 0.0049402117729187012, -0.11141499876976013, 0.063761115074157715, 0.053653702139854431, -0.064439199864864349, -0.055479846894741058, -0.095990151166915894, -0.050204768776893616, 0.047450944781303406, -0.047594621777534485, 0.050842732191085815, -0.11307145655155182, 0.076341241598129272, -0.038702681660652161, -0.095319315791130066, 0.097541406750679016, -0.0082852393388748169, -0.049849964678287506, 0.12904594838619232, -0.034763984382152557, 0.12189115583896637, 0.089664503931999207, 0.13160033524036407, -0.12697868049144745, 0.090981051325798035, 0.099785074591636658, 0.077261775732040405, 0.018289849162101746, 0.0087423771619796753, 0.067364946007728577, -0.038006208837032318, 0.12580172717571259, -0.068821772933006287, -0.10922949016094208, -0.11494070291519165, -0.061045177280902863, -0.011206574738025665, 0.12668506801128387, -0.092529691755771637, -0.052501894533634186, 0.062042728066444397, 0.019604921340942383, 0.035910606384277344, 0.060185983777046204, 0.12764747440814972, -0.085140049457550049, 0.082593843340873718, -0.10975363105535507, -0.061206012964248657, -0.034459628164768219, -0.096182636916637421, 0.038622379302978516, 0.066479548811912537, 0.10167551040649414, -0.0033118724822998047, 0.10199470818042755, 0.1106681227684021, -0.13142399489879608, -0.08617585152387619, -0.00091540813446044922, 0.059804484248161316, 0.067384779453277588, -0.015461564064025879, 0.063318982720375061, 0.085318833589553833, -0.088218599557876587, 0.11839540302753448, -0.06957755982875824, 0.0049251019954681396, 0.007084086537361145, -0.0023161768913269043, -0.090854942798614502, 0.078427508473396301, 0.092292502522468567, 0.02467559278011322, -0.047230817377567291, -0.076843336224555969, -0.094520479440689087, -0.071672357618808746, 0.10071364045143127, -0.08783385157585144, -0.10333291441202164, 0.046786397695541382, 0.056046277284622192, 0.0048513561487197876, 0.10144750773906708, -0.043162964284420013, -0.12954679131507874, 0.00397452712059021, 0.025265440344810486, 0.068779647350311279, 0.087393656373023987, -0.0094558820128440857, 0.0066789835691452026, -0.077193886041641235, 0.044040381908416748, 0.07315613329410553, -0.082148432731628418, 0.048862770199775696, 0.0026608407497406006, 0.015116780996322632, 0.11292831599712372, 0.051274165511131287, -0.11173762381076813, 0.070552825927734375, 0.10475951433181763, 0.01914551854133606, 0.073541849851608276, 
